// Auto-Generated Hardware Weights (Batch Norm Fused)
#ifndef CNN_WEIGHTS_H
#define CNN_WEIGHTS_H

const float conv1_w[144] = {-3.8438368, -1.8139306, 0.069198236, 0.0005192586, -0.42844918, 1.1313968, -4.1136465, -0.06694971, -3.3142676, 0.09879676, -0.20342125, -0.4052993, -3.1706636, -1.9908088, 2.674273, 0.18725662, -0.6620119, -1.3651333, 1.4437102, -0.0008958936, 2.258163, 1.3392799, -3.4424021, -0.07026717, 0.57618505, 4.4701815, -0.36213836, 1.4557182, -5.0514426, 2.347828, 1.8725315, 0.15035242, -2.497724, 2.7684362, -2.2642443, 0.023262128, 2.9099355, -1.1761998, 2.6536984, -0.058485284, -1.4386495, 1.7952222, -0.22402243, 2.0638092, -2.2017894, 2.4876964, 1.888208, 3.2150395, 0.022898925, -3.7748258, -3.925352, 0.018639622, -0.096775584, 0.81064874, 2.259985, -0.07935548, 1.0920976, -1.9384179, -0.3763341, -2.3736596, 2.9405227, -3.7050214, 0.6784671, -1.7953672, 0.89800626, 3.87566, 2.8783052, -0.00044184565, -0.8902131, 1.0238264, -1.2393986, -0.1874649, -2.9160807, -2.2936044, -0.4858863, 1.9842994, -1.4165852, 1.4248059, -3.5654497, -2.8581603, 3.911501, -0.1137583, 6.4423976, -0.0017899653, -1.6024425, 0.22280283, 1.5655079, -0.056694407, 0.16622756, -4.7904506, 0.75777507, 1.2446485, 1.4902835, -1.6976578, -4.500503, 0.14471878, -5.899298, 0.61625075, 4.0860586, -0.00016732105, -2.9945042, 0.7428051, 4.382919, -0.04429175, 2.0289989, -5.325027, -0.23053962, -2.624285, 4.39075, -3.3010597, 4.7093587, 0.60272443, -1.4821886, -2.1231117, -3.7625806, -1.4442549e-05, 1.8946296, -0.57994604, 2.179278, -0.057908375, 5.4498096, 3.5348248, -0.07928178, 0.5505076, 4.299095, 2.1959307, -1.8863522, -4.121581, -1.0276294, 2.7117083, -5.3884473, -9.955155e-06, 1.3286949, -2.2929282, -2.2990143, 0.0037879802, -1.0859642, 0.18339749, -0.32135093, 0.042349834, -1.7283818, 2.7072535, -1.6862214, 3.508397};

const float conv1_b[16] = {2.1209376, -0.43600115, -0.4087115, -0.6036456, -1.1522586, -0.7429304, -1.0559642, -0.79696614, -0.30007005, 0.5435614, -0.89687604, -0.9564681, -0.018162685, -0.23287502, -0.11234486, 0.37455702};

const float conv2_w[4608] = {0.0245497, 1.0012609, 0.5176665, 0.2771682, 0.19724052, -0.16797271, 0.05457146, 0.13504367, 1.0550121, 0.6050837, -0.07216134, -1.6330297, 0.16413537, 0.20730524, 0.5062174, 0.4030966, 0.041529443, -0.6324089, 0.22693291, -0.15400265, -0.3455421, 0.33998898, -0.1483383, 0.058093015, -0.44386873, -0.033937808, 0.28703135, 0.5295495, 0.6292369, 0.40748322, -0.3754913, 0.40652862, -0.17451313, -1.6575712, 0.117540754, 0.6361559, -1.6881822, -0.24352245, -0.22918661, 0.5868396, 0.62921, 0.04633884, 0.47276703, -0.6492738, -0.29270685, 0.15050325, 0.13076797, 0.14972827, -0.7801593, 0.50551546, 0.28572986, -0.2707488, -0.32684875, -0.032465037, 0.30876598, -0.004362696, -0.5622009, -0.0997477, -0.44764152, -0.12915178, -0.4830849, -0.10394714, -0.61466163, 0.28661478, 0.03759216, 0.8327545, 0.0459584, 0.44383824, 0.5412093, -0.29457867, 0.15761113, 0.44085023, -1.4127632, 0.37526327, -0.45753947, 0.1224586, -0.030216336, -0.22437271, -1.2111349, 0.09130819, 0.35392165, 1.0861065, -0.14407276, 0.04135187, 0.34681264, -0.16490898, 0.22836797, -0.36577815, 0.106220745, 0.023938393, 0.057423715, -0.45469382, -0.78551114, 0.13441214, -0.007937631, -0.20006262, 0.0116496915, 0.67297906, 0.18199804, 0.020313203, 0.3823199, 0.19095817, -0.03228457, 0.0307615, 0.2604493, 0.17345564, 0.09845487, 0.8716533, -0.23324282, 0.1320736, 0.49981743, -0.15090592, 0.2412588, 0.25317845, 0.26018977, -0.057872858, -0.15794504, 0.05997302, -0.046486765, 0.38139403, 0.29520798, 0.04448931, 0.43940404, 0.121781215, 0.15676072, 0.09582081, 0.0714447, 0.1782805, 0.29855305, -1.2206614, 0.084101945, -0.1903155, 0.1285374, -0.22764124, -0.024974972, 0.4311691, -1.189039, -0.42452598, -0.22708903, 0.45245165, 0.52516145, -0.6997578, 0.98457426, -0.13658021, 0.7641781, 0.9506257, 0.18031017, -0.26008525, -0.1649096, 0.17453626, -0.08813437, -0.19093142, -0.53960097, 0.17137946, 0.5643551, -0.9812171, 0.009329788, 0.6434329, -0.18222289, -0.9597323, 0.22796318, -1.9131575, -0.18017012, -0.40585867, 0.1364666, 0.055151097, 0.0550347, 0.06711403, 0.16502228, 1.0200521, -0.6971724, 1.2487767, -0.6002471, -0.3997629, -2.2388842, 0.29824024, -0.2947381, 1.5815997, -0.0073882323, -0.22148025, 0.55176014, 0.084846586, -0.6099944, 0.037234027, 0.4563849, 0.091725335, -0.42523566, 0.6618217, 0.3988213, 0.44926098, 0.24994206, 0.7224384, -0.16451089, -1.3490357, -0.2857088, -0.21277677, -0.41471288, 0.44589767, 0.12082494, 0.5474668, 0.3366229, 0.419493, 0.34052435, -1.9916906, -0.79807943, 0.27165115, -1.3133138, -0.14442746, -0.566191, -0.5343545, -0.3777679, 0.23907393, 0.03404962, -0.22673027, 0.29606426, 0.4014158, -0.49369818, -0.24141149, -0.9032619, 0.087233774, -0.6427299, -0.06970001, -0.43540692, -0.9946517, 0.016480478, 0.63024056, 0.040709056, -0.08138091, 0.35062936, 0.12055056, -0.01810338, -0.026255809, -0.012680539, 0.090802506, -0.039609563, 0.7376873, -0.26901028, 0.06753989, 0.20275778, -0.118935734, 0.19658345, 0.25682035, 0.1759146, -0.053748865, -0.12408012, 0.037965007, -0.076915145, 0.29188013, 0.24387304, 0.0349946, 0.23407277, 0.07227352, 0.050258197, 0.033117507, 0.043797724, 0.17902465, -0.03726681, -0.4324379, 0.09490322, 0.45198563, -0.15376852, -0.28551745, -0.049529843, 0.6352043, -1.1052185, -0.23757216, 0.14852946, 0.12780796, -0.37118536, 0.37992415, 0.8848626, 0.1928477, -1.2019825, -1.4137474, 0.26980072, -0.2305728, 0.521286, -0.033178654, -0.14628047, 0.07858404, -0.6901096, -0.15182468, 0.26434577, -0.32899076, -0.6993755, -0.38422534, -0.3131989, -0.24515094, 0.18457657, 0.8943947, 0.45475876, 0.48182976, -0.38400543, 0.10746783, -0.17229815, -0.29095826, 0.4782263, -0.41608873, -0.28020012, 0.04071397, 0.08107882, -0.0037601718, 0.33268902, 0.40374467, 0.15043503, 0.75200874, -0.35610107, 0.015938051, -0.14199367, 0.05960173, 0.18166615, -0.43197566, 0.39952645, 0.07660932, -0.19836175, 0.8799175, 0.11375278, -0.5833387, -0.27970007, 0.8357286, 0.022037359, 0.7416854, 0.2374839, 0.062391877, 0.4060024, 0.2414396, -0.04500166, 0.055569835, 0.3733269, 0.26382953, 0.25092694, 1.0913895, -0.1569447, 0.14621875, 0.61750317, -0.18288037, 0.2908035, 0.2821819, 0.2836066, -0.062424738, -0.22758079, 0.076690465, -0.01207389, 0.35553566, 0.40045127, 0.05815403, 0.4010829, 0.18495022, 0.23056103, 0.16855726, 0.042172384, 0.22532265, -0.082238935, -1.0187727, 0.017986579, -0.76430583, -1.5196773, -0.09341376, -0.21915558, -0.05466953, -0.9307288, 0.6245661, -0.14261402, 1.4121134, 0.18238452, -0.22667581, -2.655686, 0.2784283, 0.61990494, 1.3558127, 0.30921346, -0.2388405, -0.045054663, -0.050611902, -0.45004502, 0.95446396, -0.24718817, 0.058607347, -0.9073277, 0.20329985, -0.42141265, -0.51269877, -0.41374916, -1.0566411, 0.06925569, -0.9354318, 0.07242838, -0.568361, 0.4057686, -0.34658715, 0.30326498, 0.62478364, -1.1289564, -0.60266364, -0.573161, 0.76808, -0.95327747, -0.8872656, -2.2293463, -0.32770437, -0.97852534, 0.028719414, -0.29662246, -0.10441045, -0.32062358, 0.34279695, 0.7229311, -0.046687614, -0.720938, -0.093488574, -0.077036515, -1.1523504, -0.9534624, 0.39718014, -0.3009212, -0.0018153515, 0.082035, -0.21518223, -0.02139682, -0.38559437, -1.2096779, 0.020155575, -0.06460055, 0.5913108, -1.0306482, -0.9741084, -0.0679756, -1.673566, 0.21774922, 0.41634127, -1.2145838, 0.26827273, 0.21109076, 0.70458895, -0.08890385, -0.20113698, -0.094336875, 0.13066584, 0.30149052, -1.072979, 0.5338714, -0.15735362, -0.280028, 0.72378826, -0.4669715, 0.40135193, 0.34926897, -0.35117072, 0.068467654, -0.25713202, 0.41762537, -0.06252967, 1.2120273, -0.47337535, -0.12269642, -0.7198211, -0.092445426, -0.43552333, -1.2400604, -1.2777034, -0.6952257, -0.27652043, -1.3246857, 0.19081989, 0.40078565, 0.6033633, -0.463299, -0.25526023, 0.022817135, -0.15511557, 0.49187446, -1.1408334, 0.04376302, 0.06404837, -0.082571745, -1.114411, -0.017054813, -0.5302959, 0.20084083, -0.09231472, 0.1341482, 0.7743545, 0.1144307, -0.34973553, 0.1051069, 0.39274126, -0.07693981, -0.17384169, 0.26999968, 0.23108932, -0.25602588, 1.1488369, 0.2195462, -0.2609884, -3.2596645, -0.1011688, 0.7403618, 1.1587144, 0.53918254, -0.2449433, -0.057650108, -0.25181267, -0.017239572, -0.09483648, 0.38099816, 0.17413306, -0.17466731, -0.821516, -0.33872983, 0.56882787, -0.19640824, 0.26080775, -0.06708634, -1.7991705, -0.017288607, 0.26365924, -0.64945054, 0.3761933, 0.12947899, 0.16157933, 0.6681046, 0.4860095, -0.20157062, -0.1088121, -0.07751605, 0.8470837, 0.9566615, -0.16350263, -0.38167822, -0.20801994, 0.58092177, -0.15104045, -0.441233, 0.24971032, -0.45000523, -0.38032568, 0.27791718, -0.020108227, -0.2524562, 0.049902968, 0.26745647, 0.07778691, -0.5817666, -0.39240956, 0.24548718, 1.4288915, -0.3349242, 0.028666807, -0.6652454, 0.29046488, -0.06977496, 0.027160883, -0.39274645, 0.8318255, -0.51533467, -0.31819007, -0.2846556, -0.10940795, -2.0720527, 0.44461468, 0.6658148, 0.90359485, -0.29400605, 0.08261246, 0.50189644, 0.19167985, -0.12919702, 0.70659775, 0.19346046, -0.2315989, -0.27931523, 0.36006227, 0.07325276, 0.18825276, -0.024531472, -0.67676044, -0.061057784, 0.320126, -0.60025686, -0.03517517, 0.6962668, 0.24055019, 0.15564227, -0.29619417, 0.80613464, -0.20320322, -0.055883825, 0.51206964, 0.871051, -0.4427665, -1.9805751, -0.146192, 0.1743877, 0.2979005, -0.13103248, -0.20265456, 0.097528085, -0.06556421, 0.15338707, 0.13562839, -0.32443246, 0.09445036, -0.4859306, -0.56022066, -0.2939191, -0.700817, -0.33258, -0.10226161, 0.009481408, 0.64189583, 0.18327881, 0.040986747, 0.40514544, 0.18844758, -0.03234936, 0.030933933, 0.22441776, 0.17231415, 0.067156486, 0.9111861, -0.19718666, 0.05774764, 0.4960784, -0.13704148, 0.27540094, 0.27538362, 0.2826993, -0.059488073, -0.15524547, 0.059674833, -0.046152335, 0.39169976, 0.3595217, 0.045171544, 0.394128, 0.111974634, 0.20401017, 0.09998778, 0.05880996, 0.17397073, 0.33579895, -0.9963087, -0.4413051, -0.63182217, 1.3973354, -0.107395224, -0.19292705, 0.21681345, 0.81837505, 0.10033027, 0.61355436, -0.3641463, -0.28903365, -0.054587897, -2.4483452, 0.38462907, -0.28160334, 0.43075028, -0.23022349, 0.054055702, -0.10259114, -0.38656482, 0.15635747, -0.54832584, 0.23279493, 0.11504333, -0.34032843, 0.10402998, -0.8648626, 0.68139386, -0.20847788, -1.2451677, 0.3846346, -0.27356514, -0.5285377, -0.5700495, -1.1083386, 0.5141881, -0.004977877, -0.3379666, -1.4698796, 0.660335, 0.57984155, 0.9698217, -0.21638216, 0.503135, -2.4894485, -0.45258558, -0.45487967, 0.24985944, 0.06514498, 0.19673781, -0.47580376, -0.31651548, 0.2118068, -1.0928643, 0.11796896, -0.13674974, 0.4670629, 0.7583644, 0.018014235, 0.7445497, 0.19573656, -0.885362, -0.16251573, -2.3598158, 0.14388265, 0.49206, -0.24679315, -0.09090824, -0.18824516, 0.52491504, 0.9709155, 0.305958, -0.12972595, 0.67342323, -0.040170062, -0.11667759, 0.5709278, 0.21592999, -1.0274782, 0.13954128, 0.20292933, -0.3100119, -0.52772725, 0.072356954, 0.44289705, 0.04757206, -0.26708317, 0.10535761, -0.5618809, -0.5151168, 0.08604838, -0.6598558, -0.21070655, -0.7333491, 0.015368842, 0.6126344, 0.042784423, -0.07922245, 0.35779175, 0.12050299, -0.017505657, -0.030202447, -0.0010694286, 0.09554196, -0.041329157, 0.7374722, -0.24523954, 0.047493096, 0.20044482, -0.10882593, 0.21360241, 0.26461747, 0.16844524, -0.05269665, -0.12189988, 0.03808696, -0.076784834, 0.2681483, 0.2713135, 0.03545796, 0.25226486, 0.06596045, 0.08105532, 0.024223072, 0.046410747, 0.18153423, 0.08689513, 0.9706882, -0.16461618, -0.6547648, 0.375799, 0.30479893, 0.014649379, -0.03785017, 1.3706287, -0.11869241, -0.09416606, -2.1100478, 0.7665585, 0.028163917, -0.86503536, -0.29445702, -0.29567474, -0.41585886, 0.31105226, 0.10948576, 0.35479102, 0.02553701, 0.17793506, 0.8893739, -0.9338284, -0.23005047, -0.9328106, 0.060162786, -0.74024487, -0.24774931, -0.017419513, -0.5294484, 0.21959983, 0.27736104, 0.18457179, -0.13861649, -0.7543768, 0.04243416, -0.095548585, 0.12093386, 0.43199968, -0.26368794, -0.5176247, -0.73757833, -0.56134564, -0.11837422, 1.011494, 0.029902283, 0.07896778, 0.73993254, 0.3281797, 0.087087914, -0.13342103, -0.0020441369, -0.024380581, 0.04948713, 0.6931536, -0.046109777, 0.8253972, -0.63222724, 0.5442787, -0.4011915, -0.3609205, -0.6256293, 0.019720182, 0.7592244, 0.23602615, 0.03973616, 0.4870622, 0.2362818, -0.045227826, 0.056301787, 0.51150197, 0.24558002, 0.19197825, 1.3041973, -0.29324213, 0.04012731, 0.6226562, -0.17091085, 0.34074533, 0.30621332, 0.31956366, -0.06356416, -0.21325275, 0.08351621, -0.031385366, 0.44500834, 0.44922933, 0.05876722, 0.62106967, 0.17099136, 0.32860255, 0.108359605, 0.062460583, 0.14282739, 0.1742236, 0.11750334, 0.33333257, -0.5718787, 1.0995842, -0.29564098, -0.20717949, -0.12789637, 0.29730427, 0.60278344, -0.3000278, 0.7956312, 0.24993311, 0.38796115, -0.4654219, -0.00973008, -0.024909541, 0.38012475, 0.29970157, 0.28790233, -0.41692674, 0.08299039, -0.64378434, -1.007918, -0.42460686, 0.036671817, 0.57306135, -0.041424237, 0.4182149, 0.03481376, 0.16895637, -0.72434264, -0.105580725, 1.0026302, -0.81301785, -0.0005073246, 0.42124304, -0.15173607, 0.22621468, 0.11076283, -1.0780146, -0.19022761, -0.046735216, -1.7028327, -0.45146677, -0.5197251, -0.034468986, -0.364761, -1.155651, -0.1757651, 0.21165583, -0.20924233, -0.35093632, 0.48043555, 0.60994995, 0.3536934, -0.34934843, 0.008106974, -0.21007821, -0.76708096, -0.73118085, -0.14463253, -0.026935278, -0.5519351, 0.2816369, -1.2467844, 0.13970439, -0.5748333, -0.29524842, -0.18922979, -0.2171501, -0.05401907, -0.21039504, -0.7485283, -0.60970396, -1.8619925, 0.2613383, 0.19357842, -0.99383515, -0.009653759, -0.21415292, -0.1983389, -0.3155095, 0.21539985, 0.09763411, -0.3460896, 0.19406122, 0.022041883, -0.42957708, -0.14907274, -0.97209895, 0.69888777, -0.18603298, -0.20118044, -0.105394214, -1.1934308, 0.29318506, 1.2229112, -0.566159, 0.09081232, -0.8363051, 0.09722259, -0.21612078, 0.35109445, 0.22259764, 0.7393517, -0.82531005, -0.43708384, -0.96101665, -0.09467126, -1.8900114, -0.30602396, -0.011244217, 1.2575796, 0.52069193, -0.36518618, -0.18528895, -0.06544431, -0.29795623, -1.1110537, 0.34207222, -0.08795432, -0.5704142, 0.27410248, 0.31235868, -0.5468131, -0.3431052, -0.6190271, 0.03927546, 1.5971494, 0.09270414, -0.22100776, 0.6480009, -0.1898544, -0.313463, -0.123500295, -0.8508258, 0.46175674, 0.20195703, -0.087582186, -0.039763797, -0.6801155, -1.6610183, -0.027872054, -0.7597739, -0.49365127, -0.019615898, -0.14341156, -0.228867, -0.29707092, -0.28214604, -0.7538714, 0.41546655, -0.089286044, -0.19242786, -0.3845924, -0.34677422, 0.07558963, 0.15800191, -0.51581657, 0.06577603, -0.04759933, 0.18707168, 0.30003628, 0.60517454, -0.037985634, 0.036753494, 0.32886818, 0.21499477, 0.36742786, 0.33924478, -0.16175543, -0.14883906, 0.2713351, -0.07680499, 0.009649885, -0.07724369, 0.18167454, 0.29601976, -0.08510337, -0.18913566, 0.20565923, -0.21014287, 0.915597, 0.2383722, -0.018948495, 1.216493, -0.22635292, 0.52055556, 0.62503755, -0.44826397, -1.2067591, 0.1408708, 0.15440989, -0.41905504, 0.09612583, 0.2676911, 0.45926198, -0.07738751, -0.066731274, -0.54152113, 0.8694007, 0.9365373, 0.13555579, 0.35753638, -0.4021275, -0.5918471, -0.2402925, 0.42278332, -0.92519814, 0.3663952, -0.0039002781, -0.45914206, 0.2671695, -0.38462785, -0.76058507, -0.29079118, -0.14352502, -0.33232382, -0.6793829, 0.49774563, 0.5629853, -0.12053704, -1.0286633, -0.24355, -1.4829534, -0.068801425, 0.6839805, 1.0934242, -0.4828638, 0.021631494, -0.09011565, -1.4661533, -0.021809284, -0.29946655, 0.5843702, 0.38456872, 0.095611505, -0.08846305, -0.3063985, 0.48124915, 0.884668, 0.2894732, 0.14992937, 0.0793489, 0.06556692, -0.0662459, -0.20614903, 0.2694307, -0.1018601, 0.24037644, -0.1410149, -0.8840669, -0.14653124, -0.29783118, -0.62646514, 0.008460953, 1.126224, 0.18833208, 0.020477267, 0.29640985, 0.18327862, -0.0345399, 0.04209175, 0.2961469, 0.14717701, 0.08004387, 0.6945312, -0.22966099, 0.069864735, 0.32557964, -0.13699299, 0.2297431, 0.2729387, 0.25915563, -0.060626376, -0.14712806, 0.057524856, -0.044374716, 0.3068355, 0.3371427, 0.046343412, 0.3485089, 0.106391534, 0.18762451, 0.10406575, 0.02712112, 0.16790867, 0.0063054743, 1.4434469, 0.27534163, -0.07137526, -0.86936355, 0.5178231, -0.054155797, 0.24449149, 0.6204114, 1.3226994, 0.88773453, -0.58303493, 0.21307446, -0.5092916, 0.24899052, -0.25376582, 0.28860664, 0.7590819, -0.21797444, -0.0015375571, -0.46841064, -0.46270466, -0.60669976, -1.2961496, 0.16171739, -0.028779542, 0.3860734, -0.67272335, -0.46264562, -0.72005147, -0.4879176, -0.60681796, 0.40091902, 0.84623677, 0.08801584, -0.047169168, -0.7932779, 0.28146428, 0.03641684, 0.13967973, -1.3920463, 0.9639059, -0.41629303, -0.11787541, -0.39928007, -0.042128984, 1.3216465, -0.16503905, 0.4896667, -0.07919077, -0.23958181, -0.2564421, 0.45742193, -0.26384965, -0.22974007, -0.5411137, 0.7192203, 0.07687569, 0.13055272, -0.7510107, -0.72251755, 0.3112673, -0.512815, -0.92495245, -0.18823151, 1.0825667, 0.23620667, 0.23439312, -1.1579446, 0.5087514, 0.29210532, -0.12996039, -0.450091, -0.15734644, 0.88388634, -0.31322345, -0.27627757, -0.7431944, -0.70463747, -0.12028165, -1.0985677, -1.1289617, -0.45626926, 0.08733777, 0.46171024, 0.1351152, -0.4725783, 0.7889512, -0.27445552, -0.14784399, -0.8039345, -0.5592529, -0.51563066, 0.07601952, -0.46684822, -0.92923963, 0.011111576, 1.0029364, 0.04970887, -0.0770986, 0.25749093, 0.10814872, -0.019303897, -0.022224579, 0.026385166, 0.076936744, -0.051823985, 0.61270434, -0.24780427, 0.046171598, 0.037955757, -0.10943179, 0.19344522, 0.2615925, 0.157874, -0.0536973, -0.11617681, 0.03740448, -0.071359105, 0.27156633, 0.25654092, 0.0363623, 0.22873908, 0.059445314, 0.08914602, 0.01956201, 0.024509847, 0.17041978, 0.039349526, 0.6413577, -0.48827216, -0.20728447, 0.03667912, -0.42303368, 0.33467802, 0.09311002, 0.51047564, -0.202054, 1.0619667, -0.8831966, 0.44192725, -0.14448865, -1.9901303, 0.0029150238, -0.64722335, -1.0255554, 0.06551876, -0.039229166, -0.572176, 0.2801624, -0.064191006, -1.2287372, -0.26086122, 0.0071733454, -0.24307491, -0.6538363, -0.33577508, 0.4327567, -0.29353473, -0.04779651, 0.09392898, -1.0492039, -0.1515714, 0.06519693, -0.018449197, -0.15035778, -0.06182418, 0.02594965, 0.47820505, -0.47921398, 0.38027617, -0.67757297, -0.22905244, -0.10939516, -0.10733342, 0.018682985, 0.2572793, 0.12780282, 0.35258445, -0.042979702, -0.1885061, 0.031249491, 0.024841128, 0.08011137, 0.28508794, 0.03513388, 0.21557003, -0.3257741, 0.021092152, 0.20266187, -0.3906136, -0.58672446, 0.02099143, 1.3704723, 0.24452075, 0.1151874, 0.26244906, 0.2550698, -0.048674673, 0.07044707, 0.42222276, 0.20069154, 0.097496726, 1.0900079, -0.23502363, 0.051281482, 0.38081723, -0.16415837, 0.32341808, 0.2888247, 0.2726111, -0.0681779, -0.21388143, 0.07567858, -0.0075833485, 0.66290903, 0.3797839, 0.060427427, 0.56790626, 0.15341672, 0.25479352, 0.16585547, 0.052533947, 0.18921794, 0.46781287, 0.31764403, 0.31621295, -0.5165343, 0.92734325, -0.25447658, 0.23207131, -0.21309228, 0.95304435, 0.42682394, 0.6076415, 1.358692, -0.76038253, -0.05505257, 1.1836239, 0.3243286, -0.35842246, 1.9813513, 0.26232472, 0.15660296, -0.09077049, -0.20466286, -0.1708516, 1.280684, -0.036306746, -0.19899236, -0.55057585, -0.43354267, 0.21184832, -0.119568534, -0.00937068, -0.4353527, -0.27512583, -1.4782077, -0.21163502, 0.12992477, -1.4769802, -0.22360295, 0.1739673, -0.5234366, -0.24810342, -0.6534344, 0.75491613, -1.7061976, -0.050821126, -0.21426502, -1.9925101, 0.37514848, -0.85955745, 0.33129987, -0.3169585, -0.16917557, 0.27934366, 0.4036413, -0.08860219, 0.16972058, -0.31453648, -0.1201714, -0.3040612, -1.164732, 0.5507127, -0.58107525, -0.45002857, -0.46615487, 0.06889266, 1.9860116, 0.29044393, 0.6752323, 0.46833536, 0.16282998, -0.123809315, -0.35137796, -0.19068992, 0.5605906, -0.677705, -1.9915699, -0.22064345, -0.40269452, -1.7941796, 0.072840504, 0.30251262, 0.7973182, -0.3739631, -0.023074113, -0.14183347, 0.2543402, -0.29728737, 0.17176233, 0.3096699, 0.057798903, -0.2754479, -0.41959006, -0.56373906, 0.00534094, 0.34317133, -1.0161525, -0.13670735, 0.16337433, -0.58696014, -0.48608324, -1.2675788, -0.23716009, -0.0026744464, 0.016798178, -1.1716034, 1.0121351, 0.94669694, -0.17796448, 0.54208905, -0.5103381, -1.3219706, 0.4127549, 0.3923093, 0.51797026, -0.22855307, -0.25035313, 0.07046067, -0.057911478, -0.42413113, -1.3077465, -0.059883077, 0.039881017, -0.06431889, -0.15481023, -0.2511171, 0.81954396, 0.23878369, -1.181169, -0.15506841, -1.590576, 0.030468974, 0.2630417, 0.4357112, 0.19589937, -0.27497286, -0.2906341, 0.9987255, 0.72294927, 0.4777659, -0.6915675, -0.72477585, 0.19920151, -0.45711082, 0.055691205, 0.5603908, -0.3226069, -0.12453985, -0.22557266, 0.045683485, -0.19456583, 0.016758274, -0.86169016, 0.096688725, -0.19773132, -0.057681598, -0.21299826, -0.7264897, -0.28231138, -0.27075294, 0.6419805, -0.0057049887, 0.8768974, 0.5645154, 0.6269027, -0.10766984, -0.14274952, -0.04353348, 0.1791395, 0.12682596, 0.94976264, -0.089875236, 0.647452, -0.62159806, -0.31303784, 0.95079327, -0.272173, 0.23244128, -1.0314257, 0.22194816, 0.1496276, -0.2519413, 0.339434, 0.018622935, 0.118497916, -0.09350949, 0.054924566, -0.62523574, 0.16733983, -0.15817821, 0.029530067, 0.35252944, 0.4856348, -0.407685, 1.0961934, 0.25294662, -0.30317637, -0.76439077, 0.56508255, -0.13310963, -0.31956458, 0.9231361, 0.33244088, 0.02344703, -2.0650308, 0.07884871, -0.23255153, -0.30174226, -0.5080611, -0.6916841, -1.3558388, 0.47364196, -0.09384444, 0.41483045, -0.31539753, 0.33607143, 0.39613244, -0.17000638, -0.15107225, -0.046671703, 0.5778349, 0.4018457, 0.46001595, -0.43944585, -0.6119132, 0.23702987, -2.0994506, -0.284056, -0.016905222, 0.09264877, 0.5356347, -0.083605744, 0.09690616, -1.127049, -0.5083469, -0.9453925, 1.7958208, -0.3299821, -0.060244408, 0.8143232, -0.64366245, -0.81169635, 0.5495409, -0.30476543, -0.15725611, -0.22766602, -0.17342354, 0.120204516, -0.6014331, -0.67847884, -0.0884986, -0.85000944, -0.6217405, -1.2236719, 0.30836228, -0.353735, -1.2717768, -0.0016470386, 0.653831, 0.17143874, 0.06706723, 0.43800375, 0.1865764, -0.032180764, 0.03234666, 0.3001369, 0.102087595, 0.12367983, 0.8878021, -0.2185208, 0.10480835, 0.6617425, -0.1516229, 0.3055243, 0.2515192, 0.25812283, -0.06544529, -0.16947745, 0.057489756, -0.017018216, 0.28224114, 0.3883314, 0.043206804, 0.46957228, 0.07992159, 0.16825417, 0.12335145, 0.013715515, 0.21498571, 0.018454902, -1.4822322, 0.4226035, -0.7580403, -1.2275839, 0.2804804, -0.033365946, 0.48863024, 0.7344839, -0.4705959, -0.7232394, 0.33956653, -0.19292307, 0.22640952, 1.8909651, 0.4775327, 0.47239992, 0.29927236, 0.3293999, 0.26539972, 0.23972481, 0.02296502, -0.20050792, -0.03444939, -0.2254647, 0.14506052, 0.008315394, -0.8953364, -0.6290873, 0.57021374, 0.36518496, 0.78767055, -0.12394354, -0.89695895, -0.006424226, -0.6214712, -0.37589577, 0.5091066, -0.22657822, 0.19777428, 0.1183086, -0.7749916, 0.56584316, -0.8497403, -0.055008523, 0.35653755, -0.6905417, 0.14994118, -0.4471683, 0.4985069, -0.17858374, -0.23738134, 0.40507928, -0.33161804, -0.27583486, -0.6427716, -0.34643883, -0.018743545, -0.23163575, 0.25003612, 0.6888395, 0.31535575, 0.08240328, -0.22457384, 0.0856535, -2.1062582, -0.55818415, 0.3626062, 1.1052306, 0.2800794, 0.24970363, 0.08486307, -0.6656942, -0.7446809, -0.60891426, 0.7751869, -0.571686, -0.4070244, -1.5105526, 0.27751136, -0.5308146, -1.1810725, 0.15009522, 0.13689345, 0.0860415, 0.09933645, 0.24479853, -1.6848896, -0.38130778, 0.16431728, 0.4836172, -0.71092516, 0.6218444, 0.047111653, 0.4356994, 0.31982845, 0.012309998, 0.63422835, 0.033620108, -0.054125518, 0.39962074, 0.11378579, -0.01824093, -0.027049324, 0.047051143, 0.040869784, -0.02338356, 0.7525971, -0.26256418, 0.064528786, 0.3185472, -0.11849416, 0.25471085, 0.24465334, 0.17496738, -0.059418824, -0.13042507, 0.033776302, -0.054501165, 0.30106798, 0.32033536, 0.03407755, 0.2901447, 0.03906694, 0.04668533, 0.030057335, 0.03229648, 0.2282252, -0.076697156, -1.4277793, 0.08115477, -0.19906805, 0.92013586, -0.41493657, -0.20820627, -0.296034, -0.6544796, 0.22494988, 0.5339765, -0.1420935, -0.21686608, -0.03162869, -0.7641666, -0.24184781, -0.3976346, -1.0116881, 0.064146206, 0.06486248, -0.32064494, 0.21805125, -0.46409282, -0.8145297, 0.4990757, 0.24886839, -0.18024321, 0.33598587, -0.37902415, 0.039838426, -0.0062925257, 0.2989471, 0.052626446, 1.1694337, 0.2526383, 0.020211833, 0.6273618, 0.3359533, 0.0024905147, 0.39903793, -0.6245166, 0.6658466, 0.31559142, -0.44638607, -0.067746155, -0.19857164, -0.72150326, 0.31604692, -0.07804841, -0.33105803, -0.63902396, -0.02843587, -0.082307674, 0.15177369, 0.109516755, -0.55669516, -0.028347537, -0.025936073, -0.085171476, 0.67934996, -0.08708027, 0.21278849, -0.18327881, 0.86395615, 0.0005739274, 0.91582274, 0.22332317, 0.07163149, 0.49756613, 0.24477005, -0.045377422, 0.05796381, 0.47639295, 0.150283, 0.13062668, 1.080887, -0.21596244, 0.13655958, 0.81950426, -0.19063078, 0.37466767, 0.27342504, 0.325779, -0.077701606, -0.2165431, 0.075876735, 0.017215122, 0.5529149, 0.43483463, 0.055322554, 0.5483006, 0.1416898, 0.26488137, 0.14372592, 0.01753605, 0.2746179, -0.05019758, 0.07083314, -0.47581416, -0.044120006, 0.9031066, -0.20996577, -0.08808268, -0.24790975, -1.3417159, -1.0531975, 0.40951166, 1.2281252, -0.65430194, -0.5753967, 0.8197915, -0.5436334, -0.20549059, -1.0136861, 0.09760079, 0.114855506, 0.042960297, -0.42205137, 0.4585578, -1.3113976, -0.54511565, 0.11751927, 0.1340198, 0.62642556, -0.15845162, 0.65305126, -0.78774184, 0.4047563, 0.119122975, -0.20879358, -0.3383928, -0.482349, -0.28404903, 0.09479739, -0.16903268, 0.37820747, -0.050152294, 0.72472054, -0.04449694, -0.094781995, -0.49227598, -0.6675154, -0.36476448, -0.39682418, 0.53375024, -0.514208, 0.25717202, 0.17389378, 0.6148165, -0.041962422, -0.22103158, 0.084726706, -0.15460321, 0.048557527, 0.41447544, -0.19798477, 0.08904443, 0.19154148, 0.25219965, -0.05400093, -0.30794796, -0.2357064, 0.1946563, 0.34194744, -0.04359092, 0.5844221, 0.1823542, 0.180816, 0.35618633, 0.45677522, -0.9289804, -1.3380791, -0.11879801, -0.4943177, 1.4147499, 0.02444472, -0.8660958, 0.09429776, 0.25786662, 0.046086043, -0.41735947, -0.1275529, -0.2051785, -1.0249152, -0.44847962, -0.20855618, -0.5341888, -0.25181216, -0.44995236, -0.53549445, -0.18533811, -0.72536534, -0.07822581, -1.434678, 0.07325518, -0.6279884, 1.2275603, -0.67374015, 0.039037496, 0.34630513, -0.6302515, -0.5835546, -0.3622428, 1.5866333, -0.60411805, -0.53298676, -0.8659199, 0.39190212, -0.6604717, -1.2656009, 0.05170836, -0.33325335, 0.011663328, -0.3861026, -0.5202482, -0.35242954, -0.5206048, -0.007853947, -0.42391402, -0.51968634, 0.86975414, 0.6937406, -0.060291454, -0.6990301, 0.04469228, -1.3436797, -0.40032747, 0.40080312, -0.34333968, -0.08552949, -0.039689664, -0.29688746, -0.38902724, -0.52022755, -0.5281409, -0.7291638, 0.4639486, 0.17032719, -1.9508218, -0.4483454, -0.9682216, 0.24549338, 0.4049349, 0.061169367, -0.3902956, -0.12991351, -0.61261535, -1.5342395, -0.07442277, 0.05272228, 0.2760529, -0.4880581, -0.55319315, -0.6304832, -0.18573813, -0.71504605, -0.047067434, -0.2115734, 0.30573264, 0.07959575, 0.51838213, 0.43473655, -0.058684442, 0.15347406, 0.6924281, 0.56116503, 0.85066324, -1.6345465, -0.4702168, -0.285035, 0.23891579, -0.36663064, 0.3003005, -0.006506594, 0.2618098, -0.059336763, -0.26284, 0.14386195, -0.17330618, 0.2390822, 0.3357101, 0.12567843, 0.46324578, 0.3858595, 0.29897016, 0.9368642, 0.21072802, -0.7209587, -0.16816668, -0.7230757, 0.6592058, 0.060213804, -0.8297647, -0.25358015, 0.059446074, -0.44348857, 0.68448883, -1.0450732, 0.08861844, -1.1883266, 0.25643525, 0.6514355, -1.3708715, 0.34725896, 0.5944247, -0.5005992, 0.16387098, 0.25590387, -0.1631777, -0.18984888, 0.27595598, -0.6681357, 0.28112036, -0.09602952, -0.4859095, 0.382598, 0.32357547, -0.6174975, -0.5971601, -0.4459392, 0.0520286, -0.66948205, 0.19360994, 0.9758155, 0.06034256, -0.034983024, 0.009235963, -0.26680312, -0.8265021, -0.60283047, 0.71715873, 1.0051799, 1.0501453, -0.37872928, -1.0761251, 0.21275672, -0.5866037, -0.33404097, 0.10993171, 0.0017977484, -0.25018367, -0.31400055, -0.21957955, -0.3833713, -0.018454902, -0.101617634, -0.35328403, -0.5344052, 0.24959241, 0.3374595, -0.2713716, -1.0212032, -0.0036613042, 0.6501737, 0.1705358, 0.05857175, 0.4587, 0.18542936, -0.03238883, 0.03269953, 0.30244997, 0.09607823, 0.09683659, 0.8858307, -0.2276654, 0.06603388, 0.6650401, -0.13710338, 0.3218009, 0.27498758, 0.26294166, -0.06523841, -0.16604224, 0.057074714, -0.01292053, 0.4715566, 0.41676337, 0.04361706, 0.5159871, 0.0716936, 0.22142342, 0.08404711, 0.051276222, 0.20023926, 0.3830234, 0.3544449, 0.5369065, 0.59329444, -1.4822441, -0.40554047, 0.110987864, 0.051977098, 1.2689149, 0.21267202, -0.7849024, 0.19338727, -0.7075438, -0.109579265, 0.49493125, -0.010561013, -0.65588844, 0.51348436, -0.26609442, 0.074850634, 0.24836794, 0.030073633, -0.57733494, -0.75146013, -0.65797573, -0.24681701, 0.5641365, -0.07801944, 0.8909916, -0.69941384, 0.2929987, 0.5759232, 0.08803593, 0.6359572, 0.04248976, 0.24080205, 0.52620596, -0.23490109, -0.1655277, 0.030593475, -0.64402145, 0.3723769, -0.023458194, 0.0147758685, 0.54441243, -0.5125889, 1.6422738, 0.14910121, -0.5928778, 0.6249974, 0.2749658, 0.16269836, 0.114707075, -0.044181384, -0.60100156, 0.44474852, 0.03781593, -0.1555413, -0.10523015, -0.85316133, 0.43811747, -0.28562835, 0.2442502, -0.77938735, 0.081437714, -0.72438943, -0.52965117, 0.1700272, -0.8284711, 0.3491885, 0.120910786, 0.19138364, -0.43969437, -0.37259454, 0.04270588, 0.2358023, -0.55802906, 0.1750754, 1.8389256, 0.20558274, -0.3467261, -0.22499932, -0.2302236, -0.10010149, 0.43675494, 0.1975301, 0.50488925, -0.52313846, 0.25320917, 0.091037095, -0.60211, 0.6285122, -0.5887585, -0.2238725, 0.09692912, -0.5458876, 0.01079206, 0.6193518, 0.03803396, -0.049436726, 0.41578692, 0.11226915, -0.017853534, -0.030805511, 0.064853825, 0.041502174, -0.03195858, 0.77060664, -0.23761071, 0.045959543, 0.32031918, -0.10920958, 0.26941755, 0.25023773, 0.17396727, -0.05679469, -0.12812978, 0.03374684, -0.05318562, 0.2645898, 0.34631982, 0.034252193, 0.30273175, 0.035267025, 0.09131988, 0.020599158, 0.031368356, 0.22127515, -0.04579438, -1.1000837, 0.25160664, -0.3530328, 0.5722124, 0.30808046, 0.1299838, -0.09333698, 1.1087939, 0.6504886, 0.44419038, -1.7553694, -0.5504948, 0.09836563, 0.40766996, -0.3051748, -0.53536993, -1.0611377, -0.49241763, -0.15433054, -0.42468452, 0.15729605, -0.37330765, 0.25041366, 0.17348951, 0.21251507, 0.030636694, -0.3724038, -0.03831362, -0.314036, 0.49234566, 0.7110678, -0.08234551, 0.4614001, 0.08698634, 0.19572808, 0.3654148, 0.11511643, 0.0343365, 0.046708047, -0.32009444, 0.200192, 0.3924069, 1.2525495, -0.42510262, -0.32374606, -0.60971063, -0.30866203, 0.008708746, -0.57963127, -0.015128698, -0.16284236, -0.10552656, -0.0023778903, -0.28304645, 0.33485612, 0.18186122, -0.024755638, 0.2752394, -0.5514204, -0.13112044, -0.35072842, -0.09501476, -0.58498573, -0.0018914508, 0.8734014, 0.22579654, 0.09411372, 0.53317827, 0.22750388, -0.045244824, 0.05795577, 0.46860012, 0.13975793, 0.12029751, 1.0175142, -0.15114199, 0.08620932, 0.7957451, -0.16713417, 0.39978448, 0.29295027, 0.35916832, -0.07247791, -0.21382356, 0.07446003, 0.044387177, 0.25387275, 0.5076855, 0.056346685, 0.5449588, 0.13137934, 0.30017433, 0.08383225, 0.004482736, 0.22904119, 0.17979996, -1.577899, 0.60512465, 0.54586923, 0.52982146, -0.042691268, 0.10926827, -0.5748231, 0.057786778, 0.15492482, -0.078638785, -0.982546, 0.67720455, 0.4299252, -1.4057517, 0.27764827, 0.58597183, -0.845168, 0.10129565, -0.11278344, -0.035928547, -0.31415957, 0.15432502, 1.1946267, 0.26541603, 0.12221605, -0.9758821, 0.19602002, -0.10562568, -0.27185464, -0.5229517, -0.5385635, 0.3536127, 1.1257703, -0.19530937, -0.20126036, -1.3289431, -0.5957538, -0.17480123, -0.006063221, 0.8128751, -0.39037174, -0.4744454, 0.1388415, 0.15092658, -0.35875118, 0.10113473, 0.02411487, 1.0405135, -0.8531638, -0.13036455, 0.08591722, -0.49601212, -0.2068206, 0.5873671, -1.9660742, 0.5348442, 0.37542623, -0.22921023, 0.38678053, -0.062278293, -0.20944192, 0.35712245, -0.2755623, -0.26427197, -1.1825404, 0.34169242, -0.36783832, -2.0725071, -0.21619608, 0.1256282, 0.35429874, -1.256308, -0.49746478, 0.63748765, 0.43317556, 0.42805186, 0.200521, 0.3694505, 0.09113057, -0.36753377, 0.5897501, 0.11512161, 0.29447296, -0.4429843, -0.016310116, -0.41444546, -1.2770587, -0.048742607, 0.06671688, 0.015244175, 0.6577129, -0.044567347, 0.5812697, 0.23443958, -1.072462, 0.13314766, -0.9076888, -0.5619423, 0.017245932, 0.0027305076, 0.13689965, 0.014613746, -0.13009699, -0.73153436, 0.3430146, 0.17991401, 0.7208334, 0.24977897, -0.405746, 0.18747574, -0.07965924, -0.08339492, -0.029761136, 0.38307777, -0.30086872, 0.2897509, -0.3743682, -0.71022755, -0.46539518, -0.71218646, -0.008300533, -0.5564579, -0.08426145, -0.7820568, -0.7693662, -0.59103656, -1.1660739, 0.16508329, 1.9999866, 0.38893378, 0.35428175, -0.5163032, -0.5094899, -0.15756498, -0.5737662, -0.21157767, 0.25542635, -0.3482363, 0.30799565, 0.37988976, -0.11907281, -2.2763588, 0.47209576, -0.47775376, -0.018939462, -0.23192774, 0.26074898, 0.26670194, -0.057994183, -0.54433316, -0.7825182, -0.3555326, -0.10046658, -0.46667764, -0.9352969, 0.37207353, -0.15064883, -0.03556525, -1.259414, 0.18204907, 1.3917865, 0.09249718, 0.10364141, -0.40093026, 0.44364974, -0.012472907, 0.15209909, -0.7747482, 0.40235195, -0.1062989, 0.52139795, 0.117641605, -0.28534293, -1.1742191, 0.06827837, 0.28743908, 0.4912658, 0.43750846, -0.046814173, -0.016169896, 0.05519897, -0.5704618, -0.3009167, 0.43593824, 0.055157453, 0.035915166, -0.013687061, 0.023914916, -0.124495655, -0.40616482, -0.4144355, 0.050825145, 0.7324713, 0.04101154, -0.52669036, -0.29481494, 0.26543847, -0.012581359, -0.021025898, -0.6261924, -0.4289524, -0.31142017, -2.3534217, -0.7771052, 0.07937464, -0.22892104, 0.4234386, -0.028659934, 0.18611139, -0.32664528, 0.10365836, -0.5936562, 0.09962106, 0.4170344, -0.5355488, -0.008358807, -0.19311069, 0.6297468, -0.4228214, 0.7503641, -0.7204114, -0.018731315, -0.46810335, 0.05387674, 0.11790474, -0.28201973, -0.34610784, -1.0263437, -0.29746276, 0.27675802, -0.054381438, -1.313516, 0.16419928, -0.9819163, 0.02454245, 0.57249993, -0.27598476, -0.8709957, -0.0685579, 0.531834, -0.80472726, -0.26860243, -0.03207483, -0.016957281, -0.049223162, 0.040328223, -0.97457457, 0.016493168, -0.02174676, -0.26139617, -0.5840499, 0.40074873, 0.1598913, -0.04027536, -0.4577012, -0.002988611, 1.1434085, 0.17800178, 0.07283873, 0.35172597, 0.17263255, -0.034553986, 0.042754535, 0.32126158, 0.069713295, 0.05066568, 0.79987687, -0.16793413, 0.032758128, 0.39716604, -0.13614975, 0.2892974, 0.27291387, 0.2574675, -0.06572502, -0.16469045, 0.0552094, -0.013316626, 0.27497765, 0.4058495, 0.044989917, 0.5133707, 0.06378323, 0.2291656, 0.07379091, 0.0018206465, 0.1930673, 0.29241616, 0.91250294, -0.12892376, -0.7302025, 0.21843001, -0.18212679, -0.023610659, -0.22893852, 0.16300905, -0.7566372, -0.15963943, 0.9795645, 0.3370137, 0.4597229, 0.7168564, -0.39326945, 0.4824264, -1.0310552, -0.21569851, -0.030928928, -0.11770546, -0.025162969, -0.44391257, -0.18763658, -0.667576, -0.2282454, -0.26773554, 0.40303707, -0.023504915, -0.7128463, -0.5659272, -0.24187239, -0.15371838, -0.5062756, 0.63157713, 0.6070915, -1.1886635, -0.1719939, 0.28001982, 0.1614034, 0.9940837, -0.29515117, 0.60868603, -0.34073368, -0.14834034, 0.3840592, -0.35454154, 0.19098556, 0.18651235, 0.18949789, 0.14437537, 0.15847832, -0.3809373, 0.25815684, 0.3148484, 0.6876155, -0.31495172, 0.11927272, 0.42395613, -0.8251287, 0.78270423, 0.26366228, -0.18704346, 0.57043594, -0.2812529, 0.8639379, 0.50595546, 0.5804015, 0.42346224, 0.27237272, 0.27781314, -0.27985582, -0.028398154, 0.6727294, -0.16453259, -0.4198552, 0.027982177, 0.3946054, -1.1241704, -0.5549655, 0.32000297, 0.09210233, 0.30603528, 0.10591173, 0.45419896, 0.2868906, 0.27918923, -0.27327338, -0.20482792, 0.19298786, -0.045031525, 0.17034912, 0.9533299, -0.5932072, 0.37809697, -0.92744327, 0.008868049, 1.0115088, 0.044458173, -0.05125833, 0.31987792, 0.09966407, -0.019663569, -0.02284736, 0.08843849, 0.024348192, -0.052855562, 0.61617047, -0.24167874, 0.047787853, 0.08904708, -0.109423414, 0.24876508, 0.2494407, 0.15375368, -0.057586566, -0.12748598, 0.03322063, -0.046626255, 0.2548087, 0.3295611, 0.035008967, 0.28862405, 0.028730474, 0.104335345, 0.014096922, 0.013520857, 0.20817465, 0.14345323, -1.1910783, 0.16508442, 0.24116859, 0.49424693, -0.45177877, -0.19425148, 0.45600858, 0.07199403, 0.12492709, -0.35953337, -2.0832107, -0.30517104, -0.83045405, -0.24737386, -0.31448397, -0.4399296, -0.64542127, -0.18907799, -0.15487216, -0.23382229, 0.1052296, 0.20661923, -1.3787055, -0.040629085, 0.11766009, 0.7828748, -0.81701547, 0.3876679, -0.6125779, -0.34534243, 0.75298333, 0.038976673, 0.29546082, 0.16557118, 0.29107466, 0.04348251, 0.43259993, 0.0031989214, 0.10697912, 0.2420307, 0.47467738, -0.32754517, 0.7221996, 0.2645043, -0.14201896, 0.3107977, -0.057367686, 0.20815858, 0.5201771, 0.27119726, -0.06388903, 0.017886387, 0.000854122, -0.18628313, -0.5946063, -0.063082986, -0.030108802, -0.15882866, 0.14898454, 0.28134975, 0.25657862, -0.20414211, -0.40047285, 0.0012893972, 1.409656, 0.22781327, 0.08850093, 0.37075064, 0.22214234, -0.049017586, 0.068089396, 0.43197992, 0.1135544, 0.24524991, 1.082514, -0.29539987, 0.09080425, 0.51715076, -0.16969882, 0.38712314, 0.29049146, 0.3286675, -0.07596949, -0.21506152, 0.07685466, 0.013104493, 0.17289816, 0.44511527, 0.057454664, 0.69754004, 0.118135795, 0.26254636, 0.12184918, 0.072823785, 0.21640171, 0.093030386, 0.6250841, -0.18904743, -0.77388865, -0.12661281, 0.5595889, 0.3099996, -0.2375595, -0.07087816, 0.5391618, 0.061720166, 0.41023177, -0.101548314, -0.6863545, -0.3663, 0.13054717, -0.56672686, -0.6657378, -0.37789696, -0.12582645, -0.45017472, -0.27853882, -0.36621696, -0.03812387, -0.42594963, 0.1139745, -0.08077903, -0.6037417, -0.024625987, -0.41105044, -0.34626874, 0.6247916, 0.46977922, -1.3573414, 0.52502376, 0.6719009, -0.11684494, 0.16266724, -0.16242936, -0.32890487, 0.6864872, 0.4985663, 1.1962363, -1.909583, -0.4632618, -0.37717816, 0.05120055, -0.091095805, 0.38822246, -1.3127238, -0.37037408, 0.20688738, -0.4011084, -0.09657172, 0.2692172, -1.5329005, 0.7587029, 0.28107044, 0.67857, 0.41824928, -0.03566099, 0.4735807, 0.0030738383, 1.0336945, -0.0007218251, -0.98320013, 0.0034720786, 0.25717613, -0.7167201, -0.21170416, -0.026803665, 0.38136733, -0.86913234, 0.40193197, -0.7931866, -1.796623, -0.72790515, -0.7572091, -1.202587, 0.3181032, 0.72530025, -1.0216208, -0.11155885, -0.18760198, -0.08688845, -0.030881973, -0.15975742, -1.0970423, -0.24981818, -0.04350825, 0.13379201, 0.21078388, 0.5683673, -0.93408453, 0.24095614, -0.5634708, -0.101090476, 0.5532048, 0.57418776, -0.04704082, 0.36976242, -0.040701542, 0.2712457, -0.2776989, -0.5331953, -0.68249846, 0.30726156, -0.76635325, 0.3192854, -0.6356958, 0.671715, -0.29163414, -0.2386382, -0.19808954, -0.32396737, 0.19396715, -0.17588426, -0.21377976, 0.19918285, -1.2592045, -0.34438965, -0.13474406, -0.66174304, -0.4114862, 0.28392544, 0.9822509, -0.45887414, -0.30816165, -0.12261018, 0.80290717, -0.77520883, -0.47672197, -0.6857599, -0.16066287, 0.028490307, -0.1121533, -1.058759, -0.3351496, -0.8361285, 0.17670505, -0.3897904, -0.49440292, -0.6615339, 0.36224812, 0.3008687, -0.39974597, 0.44610712, -0.1360935, -0.36288884, -0.30039746, -0.6581004, 0.14361314, 0.07786214, -0.0021291077, -0.7350495, -0.5414536, -0.4190143, -0.57251126, 0.3707549, -0.86177427, -0.12863994, -0.20393236, 0.64175504, 0.82896674, 1.0413052, 0.15791288, -0.18709864, 0.18998389, -0.6798897, 0.077090874, 0.29730508, 1.8764654, -0.38093722, 0.22375071, -1.9693282, 0.06383119, 0.3438331, 0.17242278, -0.4374957, -0.10537891, -0.32989213, 0.24744885, -0.2427592, 0.9442298, -0.05436952, 0.030160522, 0.20853986, 1.0160167, 0.79960805, 0.6405197, -0.35676023, 0.5696504, -0.12015544, 0.74809325, 0.23553626, -0.51823705, -1.0010061, 0.3684571, -0.07805311, 0.123359114, 0.7087346, 0.2512693, 0.0022325849, -0.9599703, -0.0011245279, 0.08277323, 1.684131, 0.44514194, -0.8521812, -0.6093115, 0.41332904, -0.22763823, -0.55883414, 0.15903282, 0.29482922, -0.59051627, 0.5275366, 0.11089708, 0.102911755, -0.25982067, -0.5433862, -0.21621794, -0.70898485, -0.6570329, -0.143254, -0.18610132, -0.0041151876, 0.67624074, 0.439438, -0.08366406, 0.045141764, 0.12074558, 1.0893852, -0.41271663, -0.6570955, 0.5979452, 0.4442332, -0.31115738, 2.2097945, 0.35839364, 0.1666231, -0.7474284, -0.20274316, -0.021379, -0.31514436, 0.30607888, -0.2771937, 0.969047, -0.4349028, -0.038318366, 0.2507932, -0.8846759, -0.22794412, -0.3447307, -0.510015, 0.05545943, 0.0013587775, 0.7508294, 0.16557536, 0.054354962, 0.4153689, 0.18470833, -0.024249699, 0.015026364, 0.22016414, 0.08633155, 0.105518214, 0.95619, -0.2235576, 0.08343868, 0.5815446, -0.17671949, 0.34496135, 0.16534114, 0.27763984, -0.07153704, -0.17242317, 0.05690768, -0.048949324, 0.33481464, 0.46624753, 0.037715733, 0.4545988, 0.07867822, 0.13059406, 0.10830607, 0.041659694, 0.1791455, -0.18194896, -0.28937197, -0.66337955, 0.03421246, -0.6107618, 0.31709462, -0.0625166, -0.3292999, -0.36424872, -1.0797204, -0.37004447, -0.6030784, 0.24273713, -0.64999604, 0.85735565, 0.36648473, 0.65079516, -0.7633571, -0.26283062, -0.24355459, 0.059537586, -0.20947887, 0.1427661, 0.55835086, -0.18234786, 0.207409, 0.8642995, -0.66405404, 0.06653374, -0.49879262, -0.14751408, 0.31323117, -0.14661805, -0.9204031, -0.061471943, 0.5109585, 1.526172, -0.12433957, -0.103124805, -0.5387166, 1.1514106, 0.37968904, -0.4791811, 1.4119105, 0.6021498, -0.07644617, 2.1875794, -0.52965796, -0.23385802, -0.933255, 0.10809082, -0.11781283, 0.3824535, -0.35483178, 0.22337595, -1.0331128, 0.26723534, -0.2162405, -0.15490569, 0.40239865, -0.64115626, 0.59024197, 0.11860958, -0.018958252, 0.11327619, -0.99458635, 0.23631832, 0.30087587, 0.733795, 0.48858586, -0.17673005, -0.7374249, 0.90772986, -0.84647286, 0.4693032, -0.73888916, 0.62273353, 0.23867834, -1.7218329, -0.41482028, 0.51547354, -0.49549073, -0.0498606, 0.17060073, 0.22079445, 0.2049439, 0.17297791, 0.9160006, 0.29036975, -0.13116883, -0.20610426, 0.21991085, 0.5286611, 0.51438594, -0.005633029, 0.9800442, 0.012730986, 0.71709615, 0.031788092, -0.05743222, 0.39395988, 0.11224497, -0.011702429, -0.047884528, 0.02084239, 0.025221366, -0.031350374, 0.80496895, -0.27595323, 0.06286569, 0.26442027, -0.13665585, 0.28359264, 0.15577419, 0.16692623, -0.06247362, -0.12688404, 0.033021335, -0.080964535, 0.2833564, 0.37056482, 0.02935433, 0.29194784, 0.035975564, 0.019713506, 0.02732257, 0.03487462, 0.19657746, 0.12769829, 0.008035512, 0.69235635, 0.37249193, -0.5129171, 0.16614147, 0.034696124, -0.46723342, 1.734005, -0.8552463, 1.0361397, 0.097988054, 0.3530614, -0.5433782, -1.0414346, -0.40431967, -0.028199703, -0.4171149, -0.11477406, 0.10394721, 0.25135642, -0.18291101, 0.32908878, -1.2610428, -0.14895914, -0.22812593, 0.748324, -0.2891787, -0.7642724, -0.24930345, 0.18034615, 0.79998577, 0.13494568, 1.0345621, 0.36827996, 0.2225906, 0.4096293, 0.1519498, 0.11015353, 0.4034695, -0.6611689, -0.026022745, -0.25492066, 0.8339258, -0.15608892, -0.2285849, -1.8567001, 0.38296008, 0.17986606, -0.22434452, -0.28953955, 0.029121717, -0.2699924, 0.22453284, -0.043375418, -0.20614609, -0.17343253, -0.024429232, -0.5909321, 0.3681292, 0.101589896, -0.04898892, -0.21811377, 0.69796365, 0.004701554, 0.8463422, 0.22250547, 0.16713545, 0.4455427, 0.2488427, -0.037145745, 0.04002475, 0.37477192, 0.119687885, 0.16731156, 1.07914, -0.14942728, 0.08342624, 0.7096822, -0.21225385, 0.46244097, 0.18958397, 0.24029209, -0.078061044, -0.230869, 0.074115574, 0.0009666126, 0.6977051, 0.54703826, 0.048713043, 0.67135894, 0.14212741, 0.25281307, 0.188015, -0.0057472787, 0.2191748, -0.438943, -1.362884, 0.111484855, -0.46637705, 1.0851612, -0.033299055, 0.09194837, -0.24352218, -0.80662256, 0.35676578, -0.83402616, -0.88126224, 0.21178833, -0.16685897, 1.2218468, -0.4434996, -0.4696189, -0.6904117, 0.43086672, -0.11853515, 0.342187, 0.16038306, -0.37490398, 0.4903692, 0.57659733, -0.0014119467, -0.12439138, -0.12005953, -0.5950892, -0.57487106, -0.1122628, -0.38361543, -0.14825326, 0.47611466, 0.540987, 0.64447427, -0.03842023, -0.5471224, -0.3592396, -0.57728094, 1.1476382, -0.37406227, 0.667684, 2.0672498, 0.06952615, -0.2577638, -1.6954896, -0.33718672, -0.09442653, -1.0902016, -0.068166815, -0.1155029, 0.10557556, -0.41002613, -0.69031733, -0.8289933, 0.3132758, 0.14276594, 0.05898731, -1.2341089, -0.7366781, 0.16793075, -0.30597225, 0.046631448, -0.15937392, -0.48297495, -0.36173624, 0.73057216, -0.93082446, 0.03966144, 0.26471874, -0.4639238, 1.228176, -0.55194575, -0.6724094, 0.40261552, -0.8273999, 0.45224324, -0.6471199, -0.27193084, 0.48226514, -1.187018, 0.3186041, 0.24913555, -0.059372183, 0.17948018, -0.27549732, -0.42421156, 0.12148056, -0.07995819, 0.0678779, 0.17987506, -0.40498322, 0.12148606, -0.11117691, 0.6236849, -0.17314805, 0.66873527, 0.36590987, -0.8703634, 0.27069557, -0.4158831, -0.19792742, -0.3452122, -0.42027625, 0.082928486, 0.31417105, 1.3426654, 0.80860686, -0.5556578, 1.0584217, -0.25603765, 0.26458874, -0.7008239, -0.4504167, 0.059301514, 0.6609978, -0.051384438, -0.40791082, -0.6061459, 0.12045695, -0.13776375, -1.1615914, 0.066458926, 0.47541443, -0.20786953, 0.051677853, -0.6050793, -0.23931156, -1.6652448, -0.32772723, 0.17841116, -0.43669105, 0.18952344, 0.1851018, 0.23106852, -0.08469637, -0.8680837, -1.3984083, 0.35566506, -0.6727328, -0.2163386, 2.1235757, 0.116883464, -0.684976, 0.12292746, 0.09657514, 0.06624007, 0.18726529, 0.064685404, 0.16179943, -1.6701803, 0.05133598, -0.13611105, -0.2277565, -0.9977801, -0.77290577, 0.463379, -0.044123836, -0.13990586, 0.00058707787, -1.5001593, -0.19210161, -0.08574556, 0.07938373, 0.17032741, -0.060548905, 0.16803011, -0.104567945, -0.19306277, 0.05474096, 0.5565992, 0.14612272, 0.6151933, 0.5945262, -0.47220606, 0.9130586, 0.9319027, 0.1572037, -0.16312388, -0.36637446, 0.18281308, -0.010862168, 1.786342, -0.19202036, 0.06919201, -0.20880581, -0.26062366, -0.523751, 0.61332923, -0.37372246, -0.6495563, 0.0700983, 0.44783002, -0.4784485, -0.0013092837, -0.387697, -0.18415292, -0.24673247, -0.20258462, 0.76140517, -0.66836053, -0.06474562, 0.027088713, -0.81757146, -0.60615784, 1.884475, 0.13326313, 0.5326628, -0.61481905, -0.34424168, -0.008805213, -0.22100078, -0.15115824, -0.22812378, -0.37662134, -0.05402731, -0.10251281, 0.4673602, 0.16028555, 0.21926491, -0.072519325, -0.25228292, 0.05646127, -0.08871819, 0.81766737, -0.122778736, -0.3030398, -0.16466288, 0.37450537, -0.20483834, -0.017234212, -0.035805043, -0.31804094, 0.41404158, -0.041632563, -0.24171358, 0.19236082, -0.47770116, 0.016968045, -0.24377856, 0.6140374, 0.13664477, 0.02191303, 0.39107743, 0.14028198, -0.19512838, 0.5607023, -0.600913, -0.12285714, 0.26204202, -0.21608086, 0.59227574, -0.38906816, -0.009493634, -0.3729761, -0.003260407, 0.7439685, 0.16979168, 0.07263904, 0.42823315, 0.17828469, -0.0243412, 0.015452077, 0.24003154, 0.08513306, 0.0854811, 0.97119284, -0.25120172, 0.07448147, 0.5764845, -0.16642557, 0.36812907, 0.19193104, 0.2385568, -0.07178674, -0.16873585, 0.056415506, -0.043774582, 0.43025804, 0.4920262, 0.03804538, 0.469992, 0.06846336, 0.17933021, 0.09111151, 0.022717431, 0.17236619, -0.34692618, -0.4611332, -0.035999246, -0.02012564, -0.63547045, 0.020954248, -0.038168833, 0.27642813, -0.1929495, -0.8828475, -0.7628928, -1.4466724, 0.32645914, 0.50734484, 1.0798417, 0.36597824, 0.54713464, -0.7931945, -0.25472832, 0.14712253, -0.4757352, -0.159434, -0.49683493, 0.6897974, 0.64515543, -0.10038721, 0.29723406, -1.0087621, 0.96600026, 0.21155909, 0.30170745, 0.9593331, 0.22501248, -0.6540268, -0.23949273, 0.04456319, -0.84664184, -0.29197395, 0.13210343, -0.46540686, -0.09309756, 0.014370176, 0.5298445, 0.64271253, 0.5993129, -0.15465945, 0.6357927, -0.0037207985, 0.78915364, -0.13630915, 0.16802219, -0.22770329, -0.10818828, 0.033638727, 0.2962518, 0.26220778, -0.100900896, 0.14890769, 0.38781482, 0.27570707, -0.36477455, 0.59968036, -0.4209246, -0.097571425, -0.056535937, -0.28247416, -0.48654732, 0.22737882, 0.1592007, 0.28063685, -0.14006929, 0.15033713, 1.2637367, -0.7932967, -0.16444857, -0.43815053, -0.34241858, -0.72266436, 0.19877562, -0.2586834, 0.5412877, -0.19196805, 0.23874287, 0.058001205, 0.3497552, -0.39511788, 0.01629926, -1.3077571, -0.17163761, 0.14945953, 0.9162649, 0.25873068, 0.73419833, -0.22618835, -0.2733974, 0.53641766, 0.00838225, 0.69945884, 0.03318974, -0.05643491, 0.40712044, 0.11041732, -0.011697554, -0.04816593, 0.028003959, 0.02413913, -0.051886126, 0.7912344, -0.25915337, 0.046860486, 0.2655111, -0.12843725, 0.29855567, 0.16678989, 0.16152963, -0.061379306, -0.12598477, 0.032746065, -0.07829364, 0.28926456, 0.39915365, 0.029633086, 0.30867925, 0.030123176, 0.062004335, 0.01402193, 0.03326507, 0.18787797, -0.23422879, 0.16400288, -0.26649103, -0.3829551, -0.69621235, -0.11701247, -0.12646414, 0.1781207, -0.39065588, 0.7466007, -0.17737612, -0.44720405, -0.85337, 0.2509837, 1.5575671, 0.09254796, 0.9549762, -0.056038115, -0.4147187, 0.18527989, -0.46213594, -0.032763284, -0.36926186, -0.64920527, 0.7922507, -0.15748273, 0.9554899, 0.0024360977, 0.8116171, 0.49792427, 0.05545157, 0.0544631, -0.032477103, -0.8771547, -0.1801103, 0.0802718, -0.49224195, -0.050372966, -0.07293511, 0.14578521, -0.9216748, 0.31872988, 0.24919975, -0.12673451, 0.45994613, -0.037827656, -0.109977275, -0.20507456, 0.47538796, -0.5009597, 0.10281968, -0.028662007, 0.17129043, 0.070844576, 0.19547313, 0.16529578, 0.30545855, -0.006189881, 0.04695388, -0.28989232, -0.36077088, -0.5686245, -0.068297274, 0.037590146, -0.00064984435, 0.88072634, 0.21412006, 0.14809157, 0.49282777, 0.2569574, -0.03775204, 0.0434123, 0.4411483, 0.13893458, 0.15411918, 1.1737777, -0.20522669, 0.049618952, 0.67224276, -0.19959746, 0.4962958, 0.22688422, 0.31239015, -0.08303601, -0.22074386, 0.07893057, -0.003176524, 0.6594044, 0.6402304, 0.049316563, 0.6755106, 0.10756119, 0.28968126, 0.1147841, 0.09826869, 0.22018997, -0.02795113, 0.051333968, -0.18766128, 0.45918295, -0.560923, -0.182025, -0.033871632, 0.2707707, -0.60420346, -0.7818345, 0.8001838, -1.8840429, 0.53176206, 0.65669227, -0.007904894, 0.4519974, -0.30540383, -0.80083627, -0.29338476, 0.29002494, 0.55457205, -0.21580017, 0.44844472, 1.2892634, -0.06556084, -0.18663578, 0.60149425, -0.01602244, 0.47357, 0.48718262, 0.3093189, -0.6487011, 0.26128212, 0.5078454, -0.6490323, 0.32311687, -0.06259829, -0.098188244, -0.16284361, -0.05073789, 0.7399106, 0.116462104, -0.0754679, 1.8918492, -0.6326809, -0.4213148, 1.950223, 0.039411668, -0.31015953, -0.0863209, -0.016488602, -0.21157067, -0.1945606, -0.512254, -0.44917953, -0.55829537, 0.0154206185, 0.01603106, 0.6786501, -0.087726586, 0.4464514, -0.5830265, 0.13410419, 1.0154693, -0.339809, 0.71478796, -0.4946052, -0.3712717, 0.8782222, -0.19065447, 0.031568736, -0.42443928, -0.1216211, 0.123082966, -0.2639266, 0.097552076, -0.3763085, -0.03141002, -0.89541787, -0.32602006, -0.5075673, -0.7879741, 0.10597549, 0.035211917, -0.024517156, 0.3547822, 0.14171411, -0.21715675, 0.06774438, -0.07137353, 0.27482355, 0.055774663, -0.31508484, 0.2957526, -0.046907943, 0.7794754, -0.07242318, 0.60405636, 0.77824837, 0.5972451, 1.1102704, -0.18245636, -0.1562001, -0.31465122, -0.10346812, -0.043423876, 0.79938, -0.24620782, 0.1563013, -0.34898272, 0.6557786, -0.0696246, -0.16374843, -1.2664491, 0.35254648, 0.1232757, -0.09008571, 0.113441706, -0.5002752, -1.2015363, -0.49532682, -0.15931538, -0.2284896, -0.1548523, 0.2764196, 0.034735117, 0.4369106, 0.74133295, 0.13647483, 0.18962084, -0.026822511, 0.009712255, -1.0556436, -0.2941588, -0.096734576, -0.24951036, -0.14684874, -0.58988994, -0.38319078, 0.56663656, -0.2757289, 0.09892978, -0.09271322, -0.3923671, -0.03850167, -1.1681529, -0.14898641, 0.27829036, 0.018713772, -0.08158768, -0.34547654, -1.0955143, -0.39976183, -0.097510196, 0.05647464, -0.3722579, 0.2382647, 0.31206712, -0.262906, -1.0517828, 0.01935711, 0.2633309, 0.06399236, 0.80237377, 1.2858717, 0.3848856, -0.1503198, 0.38861644, -0.49639425, -0.15823677, 0.06512288, -0.40792343, -0.037170134, 0.10101342, 0.22747359, -0.35272393, 0.47588426, 0.24743655, 0.7969323, -0.15283845, -0.07957608, 0.038869098, -0.12605803, 0.815568, 0.21812369, -0.024948949, 0.66910934, 0.019924441, 0.40313148, 0.31786072, 0.09740876, -0.6993864, 0.06447934, 2.128321, 0.049644154, -0.43497035, -0.31937096, -0.18687724, -0.034999993, 0.31763837, -1.5312524, -0.487061, -0.10033781, -0.13931732, 0.0035375673, -0.31701684, -1.4565852, -0.06770827, -0.56395286, -0.20530881, 0.17107391, -0.06098071, 0.5202164, 0.046065494, 0.2297673, -0.6407873, 0.18032326, 0.06706546, -0.4322749, 0.1258191, 0.15456882, -0.50909895, -0.1448982, -0.39338166, -0.1582017, -1.1072861, 0.1682118, 0.58912235, -0.07571186, -0.22612636, 0.06802985, -0.32701385, -1.4913027, -0.07049367, -0.16538833, 0.95552725, 0.2914521, -0.11354455, -2.1630194, -0.24457675, 0.0916693, 0.19772743, 0.08504207, -0.08408198, -0.33005947, -0.00048365316, 0.25597003, 1.1237559, 0.26328376, 0.0699078, 0.37815845, 0.11981096, 0.07103609, -0.15613535, -0.3382234, -0.57928675, 0.003496298, 1.3008932, 0.17477708, 0.049654584, 0.32178512, 0.17086801, -0.026631022, 0.02577176, 0.30693498, 0.05569006, 0.03907391, 0.75618345, -0.22205488, 0.055011585, 0.31419688, -0.16572268, 0.3405705, 0.18303345, 0.2202366, -0.0727107, -0.16316785, 0.05599349, -0.040832836, 0.25221717, 0.47903234, 0.039288808, 0.4566922, 0.059344295, 0.20448482, 0.089183286, 0.008123062, 0.16238707, 0.032081027, 1.9614888, 0.34370628, -0.09832692, -0.7079748, -0.19229853, 0.2830961, 0.09877794, -0.96219194, -0.4124271, 0.128264, -1.3619758, 0.36087212, -0.6343172, -0.6708461, 0.12942125, -0.07257593, -0.18424991, 0.063622594, 0.09818138, -0.4383352, 0.1112005, -0.4384014, 0.3951171, 0.49319962, -0.13698496, 0.09746227, 0.08676252, -0.21971546, 0.54321486, -0.27225873, 0.41017127, -0.3124987, 1.9421489, -0.011277039, -0.5379901, -1.0511811, 0.44673607, 0.06353809, -0.61217844, -0.33338287, 0.6350765, -0.33264887, 0.5747643, -0.63738054, 0.37526318, 2.1601396, -0.1420382, 0.5712865, -0.26070106, -0.1461697, 0.00563011, -0.34887996, -0.0011188363, -0.12847215, 0.7972129, 0.18445031, -0.06076273, -0.17724025, 0.033960786, 0.09873517, 0.033433665, -0.03240639, -0.5626676, 0.035996962, 1.3789696, -0.2041871, -0.10640362, 0.903346, -0.07917588, -0.38157123, 0.18202487, -0.6222742, -0.8917141, -0.19264597, -0.8017279, 0.3635097, -0.28470916, -2.116236, -0.2768293, -0.092042215, -0.7160705, -0.12380287, -0.12665242, 0.11156644, -0.082791425, 0.14463012, -0.50526005, 0.8068034, 0.20492615, 0.9799111, 0.5112547, 0.026419286, 0.64716524, -0.47860837, 0.22497396, 0.012093689, 1.1351985, 0.038943846, -0.06130688, 0.31176952, 0.09575273, -0.013839576, -0.03713339, 0.054635555, 0.0071733263, -0.068720594, 0.61728793, -0.25907195, 0.04274394, 0.0233143, -0.12913884, 0.2766746, 0.16500129, 0.14022972, -0.062082253, -0.124822244, 0.03258388, -0.06926819, 0.25484776, 0.384167, 0.030410344, 0.29792738, 0.024762645, 0.07426002, 0.010751075, 0.018013723, 0.1784656, -0.19816625, -0.9856417, -0.024254426, -0.161643, -0.13802275, 0.26417863, -0.19177222, -0.3087115, -1.0623838, 0.039344236, -0.847204, 1.1312343, -0.30849573, 0.3090326, -1.481626, 0.46318266, -0.22617678, -1.049103, 0.15511617, 0.087430455, 0.14858575, 0.08861975, -0.3159172, -0.8977885, 0.313904, -0.052836265, 0.12685783, -0.45641875, -0.60680103, 0.3105954, 0.40352005, 1.0899678, 0.09287815, -0.056537796, -0.26921883, -0.054795604, -0.20043051, -0.02238054, -0.009078151, 0.070078716, -0.2665867, 0.7316122, 0.5454576, 0.6270012, 0.39589182, -0.15344082, -0.4969524, 0.016912377, 0.36775625, 0.6376387, -0.25156096, 0.054138318, -0.15822835, 0.032300513, -0.061644696, -0.42418185, 0.044944912, 0.0043055676, -0.86792845, -0.08302083, 0.23246095, 0.3363557, -0.20068471, -0.3849579, 0.008770575, 1.5004758, 0.22106566, 0.110043846, 0.3462776, 0.23869619, -0.041407656, 0.051703405, 0.4037991, 0.098859444, 0.16200365, 1.0148113, -0.23380706, -0.03301296, 0.40591007, -0.19944301, 0.41285008, 0.20895758, 0.28374937, -0.080736, -0.20485106, 0.07760794, -0.028731072, 0.3883374, 0.6065702, 0.050844114, 0.6786501, 0.099040024, 0.31444913, 0.1647677, 0.051227093, 0.13735436, -0.35187376, 0.84985757, 0.36204526, 0.32152578, -0.07282443, 0.047318608, -0.11308175, -0.37180272, 0.854808, -0.68064374, 0.031703774, -1.778534, -0.02846377, 0.0035070824, 1.4921695, -0.5307816, 0.5615707, -0.9058344, 0.1228042, -0.11852277, 0.010996582, 0.2681999, 0.42188966, -1.2013913, 0.90590113, -0.005350369, -0.08293769, -0.4380663, -0.38662708, -0.16080657, 0.39918932, 0.8266449, 0.034035176, -0.6033948, -0.041363675, -0.9728999, 1.2655171, -0.055399317, -0.12720338, -0.3127538, -1.6382693, -0.11682419, -1.2902987, 1.2317139, -0.3208607, -0.058823407, 0.97275144, -0.28484586, 0.35391986, 0.30544868, -0.079150654, 0.11898945, 0.3193821, -0.44885838, -0.38186732, -1.4018183, -0.023875164, -0.095911406, 0.67425525, -1.3727201, -0.027314395, -0.14486904, -0.31601402, 0.09056792, 0.15404011, 0.93393946, 0.51604956, 0.13456167, -0.26434696, 0.29645628, 0.050473303, -0.4670246, 0.32364103, -1.0368294, -0.5375157, 0.33609265, 0.15952556, -0.27516565, -0.16458046, -0.3043488, 0.34303296, -0.44622046, 0.55407876, -0.3084302, 0.5385163, -0.12355505, -0.46431556, -0.23648605, -0.42222154, -0.1157068, 0.4522937, -0.84050715, 0.48264518, -0.5935478, 0.14919353, -0.83417326, -0.38566217, -0.6851267, -0.45079064, -0.20286644, -1.0881648, -0.388316, -0.16211314, -0.4858522, -1.9440223, 0.09534009, -0.8557068, 0.5047907, -0.17994808, -0.45187008, -0.261909, 0.3898868, -0.040182844, -1.0784715, 0.0020228953, 0.034818023, -0.22792044, 0.037786487, -0.70490754, -0.9805346, -0.27555573, -0.032929715, 0.17562869, -0.11222048, 0.058730055, 0.047053117, -0.2179968, -1.1050781, 0.20164068, -0.6015919, 0.28978792, -0.3516846, 0.6218657, 0.40071818, -0.01924565, -0.68573743, -0.23637994, -0.05698412, -0.20863019, 0.51697576, -0.059178453, -0.3481443, -1.0935153, 0.33048016, -0.61294186, 0.17669821, 0.17932585, -0.26318085, -0.18385929, 0.11707467, -0.33905837, -0.6000686, -0.7407546, -0.11815556, 0.07299123, -0.76415956, 0.31349617, -0.38364592, -0.019529592, -0.71061385};

const float conv2_b[32] = {-0.2823317, -0.9933951, -0.833486, -0.71442777, -0.54908526, -0.5121587, -0.20309985, -0.46558884, -1.1400834, -0.5345291, -0.67752963, -1.9621568, -0.5028781, -0.33716735, -1.7021284, -0.5599592, -0.9699596, -0.6153731, -0.57945067, -0.41246656, -0.28331393, -0.6353292, -0.6021181, -0.71131253, -0.9551282, -0.345259, -1.1745988, -0.5458435, -0.7164364, -0.47545034, -0.38689068, -0.5339804};

const float conv3_w[18432] = {0.021275153, 0.11990679, -0.08367355, 0.018297277, 0.04504353, 0.1072107, 0.0012660654, 0.08908799, -0.01602121, -0.32291126, 0.05488101, 0.11760672, 0.15347078, 0.025735458, -0.081014276, 0.07091787, -0.0718026, -0.019101316, 0.04402437, -0.028533693, -0.032209285, 0.031268295, -0.14136004, -0.029796341, -0.2250101, -0.121346004, -0.21036261, -0.3386309, 0.19070084, 0.024175912, 0.038927343, 0.06338584, 0.056918196, 0.17171559, -0.090980746, 0.020402433, -0.23960994, 0.079350024, -0.20614198, -0.0014185007, 0.053294178, -0.0143901445, -0.096515544, 0.02427474, 0.03369673, -0.035088733, 0.026841179, 0.04161251, 0.10412198, -0.08814241, -0.15304717, -0.25598294, -0.1782354, 0.08183367, -0.0913753, -0.032510903, -0.13737665, -0.011878124, -0.023885913, 0.056605738, -0.1768948, -0.3318355, -0.18551292, -0.016121885, -0.021907354, 0.05283985, -0.14114591, -0.07270473, 0.037765805, 0.09003671, 0.017668348, -0.12722619, -0.088635266, 0.25375468, 0.021880215, 0.10305724, -0.068816565, -0.3564391, -0.024825571, -0.26306766, -0.10523457, -0.026595328, -0.05896687, -0.24199674, -0.044843018, -0.0674932, 0.055769123, 0.010118594, -0.32889608, 0.016816445, -0.079111256, -0.35968274, -0.11397468, -0.14462921, -0.06617936, -0.059955135, -0.15478735, 0.09864058, -0.07596737, 0.02282155, -0.23896128, 0.027682707, 0.19578402, -0.056625694, 0.06426818, -0.10059747, -0.113294296, -0.024244934, -0.028714059, 0.07653698, 0.02485998, -0.10038427, -0.062525004, 0.042253517, -0.041823946, -0.1409247, -0.2603727, -0.11336385, -0.09804188, -0.070662566, -0.057209082, -0.0038320161, -0.03354585, -0.06663242, -0.104298994, -0.40107906, -0.070441425, -0.08896885, -0.028836513, -0.037777554, -0.044279058, -0.01326761, 0.033670094, -0.2988534, -0.0103532, -0.0466021, 0.077211514, -0.2647133, -0.13479038, 0.055973507, -0.117870525, 0.24766852, -0.007549356, -0.0005519263, -0.06777473, 0.025327777, 0.031073553, -0.38061047, 0.036591742, 0.07591234, -0.09233229, 0.22232029, 0.067247964, -0.07693103, 0.013958087, -0.61406773, -0.31352645, 0.007935416, 0.08327581, 0.032725878, 0.052060828, -0.3120221, -0.09330648, -0.012837677, -0.15421148, -0.2124632, -0.14121951, 0.047807824, -0.15198472, 0.016426716, -0.058903523, -0.009987051, -0.06040832, -0.46396697, -0.0069291894, -0.03903495, -0.15558659, 0.009494124, -0.012585367, -0.003835896, -0.05516792, 0.14811264, -0.074371345, -0.07634928, -0.065307684, 0.0012541104, -0.11366606, 0.09001098, -0.1296268, -0.21261105, 0.12143876, 0.09212631, -0.011509151, -0.11050112, -0.081094705, -0.085378714, -0.015829863, -0.17596306, 0.079913005, -0.062098633, -0.02741821, -0.054072767, -0.10117926, -0.110387295, 0.05135203, -0.18842089, 0.0652856, -0.46738648, 0.07327159, 0.025791608, 0.03732716, -0.23317441, 0.013038967, -0.061256275, -0.021094773, 0.90964425, 0.033265617, -0.041085765, -0.056760583, -0.01790072, -0.004163899, -0.053936798, 0.11888298, 0.005438121, -0.14642781, -0.1915024, -0.131248, -0.019575618, -0.3722918, -0.24475187, -0.24699798, 0.06767537, 0.0021566187, -0.04717458, 0.11976243, 0.005629083, -0.0031473006, -0.47028178, 0.024991404, 0.08856264, 0.033004463, 0.08380135, 0.18007252, -0.0038761543, -0.30006158, 0.051309112, 0.08618878, -0.10854725, 0.09725827, 0.026541585, -0.011245471, -0.013822177, -0.05260587, -0.20388111, 0.05794739, -0.012438896, -0.01808441, -0.119586274, -0.15166986, 0.069276735, 0.015218742, -0.2010767, 0.023638833, -0.09661848, 0.093929514, 0.07267036, -0.14121804, -0.08155914, -0.035398364, -0.525239, -0.03639825, 0.1973221, -0.09574241, -0.050062258, -0.07325547, -0.41825864, -0.04348971, 0.027271217, -0.17160602, 0.19380774, -0.231557, -0.02026581, 0.03975118, -0.23086877, -0.07179049, -0.114909224, -0.06712852, -0.008420612, -0.09443034, 0.1878507, 0.10354408, -0.014589831, -0.18214436, -0.13261311, -0.04747706, 0.0055929157, 0.110821664, -0.003655837, -0.049852826, -0.024578484, 0.14755844, -0.090376556, 0.035645764, 0.0028010309, 0.08604707, -0.036542602, -0.048832957, -0.0038001018, 0.020868024, -0.09501222, -0.04467601, -0.025917504, 0.056101456, -0.00861083, 0.12757367, -0.06342694, 0.19240864, -0.27423277, 0.0667956, -0.10380937, -0.023148747, -0.06293072, -0.04407416, -0.08502348, -0.03962534, -0.012306354, 0.0030091146, 0.029253678, 0.10565743, -0.0648007, -0.059534814, 0.15363944, -0.071772024, 0.067012854, -0.056609303, -0.40643764, 0.04206573, 0.017859139, -0.08301109, -0.060300577, -0.016192954, 0.005499252, -0.064910814, 0.3979398, 0.03533066, -0.0623191, -0.046765514, -0.03389059, 0.1299312, -0.011165541, 0.037983526, 0.0540551, -0.08456056, -0.17270698, 0.024071096, 0.015967045, -0.34568077, -0.04401704, -0.22078152, 0.064235985, 0.12470569, -0.056025058, 0.07495555, 0.0053468137, 0.11915797, -0.38381344, 0.013232221, -0.115256675, 0.20162135, 0.06176114, 0.061820287, -0.19835956, -0.007130925, 0.014763789, -0.15897088, -0.018436914, 0.05100712, -0.020636328, 0.052104812, -0.025653286, 0.051264215, -0.1976102, -0.105284125, -0.037616286, 0.0014741754, 0.107189484, 0.06438637, 0.0032392715, -0.034999438, -0.32854468, -0.08431137, 0.028887045, 0.010621113, 0.19002923, -0.1434408, -0.04704822, 0.11646673, -0.32737133, 0.03972799, -0.37429103, 0.03573053, -0.0025453926, 0.016384352, -0.033489138, 0.023715504, -0.06549725, -0.10211751, -0.21799794, 0.21839161, -0.08915479, -0.030297602, 0.22275226, -0.011393019, -0.087392524, 0.04716961, -0.10511968, -0.1778301, 0.016281962, -0.08364241, -0.009984707, -0.019560097, 0.08617739, -0.06524834, 0.03764338, 0.0211828, -0.06915509, -0.057929743, 0.008813613, -0.16185705, 0.34887743, -0.026626347, -0.122370504, 0.12625264, -0.07037204, -0.062355366, -0.107655354, -0.07558423, -0.016850403, -0.14781325, 0.02749191, -0.0042319493, 0.00070267986, -0.08036832, 0.0040672845, -0.24046649, 0.078186065, -0.04881564, -0.060686495, 0.0033308028, -0.0031865307, -0.039126165, 0.07443817, 0.026584925, -0.17073113, 0.039602194, -0.04657313, -0.2116291, -0.4258602, 0.05648868, 0.021938862, 0.111843005, -0.52646995, -0.02341668, -0.03898511, 0.049108624, 0.046824783, -0.013367222, -0.1241513, 0.0030265641, -0.0035910225, 0.04313181, 0.13897045, -0.36539966, -0.10652353, -0.15577984, -0.100639775, -0.25522897, -0.011135198, 0.076081716, -0.057351563, 0.01469453, 0.045587867, 0.024698665, -0.0039773285, -0.17558713, -0.08793391, -0.3531534, 0.034086067, -0.030408652, -0.0428928, 0.096898, -0.02021099, -0.042617097, -0.5860514, 0.034266602, -0.15083514, -0.14275013, -0.112050034, 0.05592149, 0.042558253, -0.21945964, 0.011507229, 0.07290082, -0.012681681, 0.018626574, 0.014921533, 0.021909796, 0.077331096, -0.031865053, -0.2806876, -0.07400594, -0.082893156, 0.00918481, 0.118747, -0.01857576, -0.1413421, 0.05160999, -0.33475393, 0.025741667, 0.049424037, -0.17070079, -0.35502076, 0.020890014, 0.017586958, 0.08049679, -0.15252069, 0.05434773, -0.28390047, -0.017883416, 0.021724144, -0.06131942, -0.15665735, -0.00869453, -0.042511825, -0.07477327, 0.20088133, -0.10728772, -0.12742147, -0.08075334, -0.26497304, -0.2509284, -0.012729815, -0.011990251, -0.106006786, 0.07738162, -0.26871637, 0.08247436, 0.031625204, -0.3597679, 0.008986193, -0.17095667, -0.038950603, -0.13271615, -0.10024794, -0.06016909, -0.020905942, -0.038695775, 0.06387226, 0.0032133113, -0.10767069, -0.05739691, -0.016068187, 0.027867936, 0.23083428, -0.10859132, -0.16943468, -0.14213294, 0.012059972, 0.13529785, -0.028101953, -0.010372681, 0.08778895, -0.13182636, -0.52783865, -0.104177, -0.022415644, 0.009101682, 0.06530439, -0.039856903, -0.0534599, 0.033752386, -0.08715433, -0.009447473, -0.021312186, -0.08554912, -0.068369694, 0.015820768, -0.13947342, 0.08102611, -0.3029581, -0.03875662, -0.0584637, -0.05413604, -0.0073742624, 0.016536687, -0.12623735, -0.022747539, -0.048154723, -0.13501383, -0.39807266, -0.18720669, -0.10491526, -0.0038118823, -0.11492899, -0.3116679, -0.06567344, -0.060892567, 0.00096932246, 0.06252104, -0.086471416, 0.02304108, 0.042570576, -0.37543222, 0.008947425, -0.17512567, 0.019046342, 0.008969635, -0.008623267, -0.048654284, -0.026977984, -0.042494144, -0.111048274, -0.003916383, -0.0456042, -0.03485436, 0.046659075, 0.019313097, -0.05650015, 0.34307337, 0.11013435, 0.060416736, -0.0088162795, -0.053356707, 0.042316187, -0.0515066, -0.03890136, -0.25509298, -0.45622152, 0.030777613, 0.01955678, -0.0422004, 0.08795961, -0.0009239028, -0.16121054, 0.03412839, 0.07397226, 0.037802022, -0.02128081, -0.011979183, -0.50130576, 0.025463315, -0.16867733, 0.0410107, -0.45745394, 0.035911858, -0.20402743, 0.03704131, 0.016891835, -0.00016071023, -0.03935732, 0.027000962, -0.08425927, -0.17692007, 0.44333038, -0.10439629, -0.08247284, -0.058579147, -0.39233655, 0.09602105, 0.009075404, -0.12035648, -0.087764114, 0.008450838, -0.3618165, -0.13483235, -0.05867672, -0.2643664, -0.17101392, -0.36635175, 0.046709564, 0.085206665, -0.04634555, -0.1127167, 0.025587264, 0.119142756, -0.2952601, 0.009603159, 0.11480394, -0.097673595, -0.14751253, 0.032384872, 0.035909653, 0.06286617, -0.07723585, 0.100439176, 0.0021166604, -0.08681329, -0.0143491095, -0.09818853, 0.029330323, -0.21523713, -0.22839256, -0.08024858, -0.066788904, 0.07927954, -0.17903112, -0.1462002, -0.034619473, 0.0009471294, 0.015303169, -0.110282026, 0.1460309, -0.0096032, -0.07572443, -0.03185513, -0.18071313, -0.012405337, -0.5546042, -0.07359582, 0.26389617, -0.033248596, -0.1207463, 0.02107556, 0.13934176, -0.068663865, -0.10690971, -0.032059822, -0.6087312, 0.13232675, -0.011955006, -0.083538815, -0.24227715, 0.1566466, -0.14529325, -0.10824443, -0.07675139, -0.14127894, -0.20342328, 0.107681364, -0.008663547, -0.22529165, -0.16466038, -0.21860605, -0.083012365, -0.1661922, -0.17662542, -0.11239313, 0.0355954, -0.2230582, -0.26488695, 0.016648484, -0.032229714, -0.13946365, -0.18130071, -0.046805196, -0.30230516, -0.34533945, -0.34801325, -0.07387359, 0.037547886, -0.1398548, 0.0038781723, -0.012429495, -0.15699047, 0.071750864, 0.36222404, 0.11449771, -0.010818108, -0.006206673, -0.11829727, -0.090418525, -0.00039939358, 0.02092572, -0.23282693, 0.054078538, -0.08073988, -0.1422723, -0.30647993, -0.055251356, 0.035203896, -0.079778425, 0.28749958, 0.073386714, -0.37394965, 0.020284755, 0.06902394, 0.055773873, -0.17372105, 0.04458016, -0.075237736, 0.034878604, 0.14183222, -0.3283118, -0.099993035, -0.13834335, -0.5871329, -0.52530223, 0.032375153, 0.03168198, -0.0015393987, -0.25038114, -0.11817749, -0.16029835, -0.003988224, -0.5821382, -0.23056632, -0.5296468, 0.09042872, 0.056967583, -0.13020258, 0.01015628, 0.010064345, -0.008176229, -0.49141005, 0.02261566, -0.0024803071, 0.06446368, -0.019213436, -0.06684947, 0.15161476, -0.139169, 0.13606209, 0.15957141, -0.09362996, -0.14016832, 0.011845626, -0.1462672, 0.017808596, -0.27467564, -0.3208751, 0.0498548, 0.016398028, 0.008673013, 0.045781128, -0.003573472, -0.02385312, 0.02100386, 0.1652609, 0.009369925, -0.020785375, -0.04725063, 0.34497723, -0.08589671, -0.03981809, -0.08450901, 0.08815072, 0.015707733, 0.104077764, 0.083917916, -0.008441215, -0.022557475, 0.12337503, 0.0027770314, 0.11757484, 0.123224385, 0.047607712, 0.15743075, -0.07589926, 0.05623403, -0.082946144, 0.34224582, -0.00664102, 0.05424379, -0.010498222, 0.19341376, 0.30248728, -0.14187458, 0.044250138, -0.07454624, 0.14323848, 0.34068206, 0.08168109, 0.1289625, 0.047614202, -0.06026239, 0.022451328, 0.20966749, 0.49182433, -0.004491608, 0.17520876, -0.114091784, -0.06548854, -0.0010081324, 0.12742886, -0.09841149, 0.010198084, 0.041408915, -0.04181522, 0.045894317, 0.02134574, 0.020019697, -0.03407298, 0.13105944, -0.045384254, 0.1257712, 0.042722546, -0.01143945, 0.008390446, -0.018530125, -0.09397903, 0.018062523, -0.1972738, -0.027715612, 0.013095415, -0.04477929, -0.36121753, -0.07867613, -0.15047681, -0.15033673, 0.08025696, -0.03132341, -0.18503618, 0.006743411, 0.048460487, -0.07747129, -0.21478765, 0.037953474, -0.090242825, 0.004428586, 0.040598217, -0.03777174, -0.011281399, -0.21718113, -0.3930934, -0.05720185, 0.077755444, -0.07430848, -0.095373355, -0.19475006, -0.11878325, -0.068086274, 0.021748886, -0.13728435, -0.022654431, -0.16458882, 0.09722737, -0.09792577, 0.08157726, -0.060645144, -0.0056639793, -0.05526318, -0.5189297, 0.028803246, 0.03423874, -0.11028803, 0.06420062, 0.055540122, 0.08450205, -0.060477864, -0.08433132, -0.1593995, -0.0421159, 0.0716121, -0.033136815, -0.035943657, -0.0025528937, -0.08760333, -0.32727754, -0.15257412, -0.0732785, -0.018814031, 0.07530814, -0.12556936, -0.07312699, -0.032750003, -0.29407305, -0.042028498, -0.011838661, -0.052883685, -0.15997419, 0.08626794, -0.0058300006, 0.029860126, -0.24914475, -0.04710286, -0.4450566, -0.051859464, 0.008368903, 0.016789109, -0.04154121, 0.028044092, -0.057549004, -0.048321847, -0.7638358, -0.082434304, 0.06348442, 0.111533426, -0.43784136, -0.23279455, -0.04237621, -0.09161293, 0.03483948, 0.033666365, -0.041819077, -0.12668873, -0.06496801, -0.019190004, -0.068984345, 0.07841891, -0.038043577, -0.13473831, 0.01253254, -0.08300964, -0.03406634, 0.117601044, -0.34139505, -0.02285853, 0.051633473, 0.054195713, 0.09471182, 0.038885508, -0.087337516, -0.07610634, 0.009156882, -0.02305086, -0.05003497, -0.1660782, -0.02329229, -0.0036433616, -0.023226796, -0.045850758, -0.37456733, -0.089199096, -0.014790496, -0.007859652, -0.09258919, 0.022636289, -0.045613978, -0.0072726235, -0.023284756, 0.029683696, 0.100761406, 0.028270585, -0.0030053104, -0.123982914, 0.006606256, -0.05373187, -0.17725533, 0.04898996, 0.11785774, -0.03485426, 0.003364573, -0.032793667, 0.12189693, -0.054494105, 0.0064395764, -0.01962359, -0.27266294, -0.14768565, -0.0022967893, -0.18274313, 0.29149258, -0.068204165, -0.053115696, 0.0013349967, -0.028312512, 0.152966, -0.20837857, -0.0316922, 0.050443623, -0.011577321, 0.10231739, -0.04529165, -0.06515948, -0.15284224, -0.13006009, -0.14950529, 0.0305318, 0.019257048, -0.3175046, 0.043406386, -0.08553636, -0.13393074, -0.12377786, -0.105912924, -0.21787792, 0.15726091, -0.011465065, -0.0020723422, 0.0051736045, 0.0035208538, 0.0061521297, -0.095929824, -0.012896437, 0.09225175, -0.046306714, -0.05048198, 0.07038711, -0.002433703, 0.09972499, 0.09841547, -0.064909235, -0.023084434, -0.26287228, -0.08989024, -0.10297124, -0.09215738, 0.077804506, -0.23929858, -0.13819036, 0.1920433, -0.26188543, -0.076516524, -0.508492, 0.064084195, 0.0055793948, -0.046527028, -0.3717085, 0.008105269, -0.08055639, 0.012989745, 0.6326882, -0.20363288, -0.03256118, 0.062287647, -0.35608763, -0.38790816, 0.06949696, 0.13857675, 0.13265023, -0.12757625, -0.3249141, -0.13022675, -0.1112192, -0.054531686, -0.17916404, 0.14722244, 0.046560463, -0.11076498, 0.089715265, -0.039318297, -0.029318117, 0.2503937, 0.14971246, -0.0050569526, -0.04559251, -0.023438714, -0.066409655, -0.062163495, -0.24430613, -0.41726652, 0.17713065, -0.050263863, 0.051626254, 0.14902855, -0.015266062, -0.057599336, -0.002945841, -0.11614651, -0.23455295, 0.14121877, -0.074873544, -0.03989292, -0.018904496, -0.14229423, -0.031733293, 0.051670447, -0.033701584, -0.009170231, -0.07223344, -0.01901716, -0.23462063, -0.2152238, 0.044913415, 0.13250892, 0.44751477, -0.029072255, -0.48742634, 0.13108508, 0.019236108, -0.020409299, -0.45936322, 0.010768214, -0.046574004, 0.014997537, 0.10949101, -0.069080874, -0.14733084, -0.17756854, -0.3483688, -0.07444941, 0.048001144, 0.040325914, 0.07246094, -0.06712754, -0.3409639, 0.07863832, -0.020362679, -0.34023637, -0.16189425, -0.1596394, 0.006064491, 0.030390223, 0.04513044, 0.17916815, -0.010466759, 0.33263287, -0.2645552, -0.01867634, 0.1602893, 0.119626686, 0.14287491, -0.024792058, -0.22036135, -0.5317716, -0.016127074, -0.12651905, -0.079899214, -0.15881866, -0.03207275, 0.15479188, 0.23560055, -0.10230067, -0.11063585, -0.061414365, 0.004232122, 0.0049061147, 0.02442926, 0.057657517, -0.00078833505, -0.018251633, -0.3014913, -0.023704007, -0.095115736, -0.13780294, 0.21937251, -0.19546473, 0.106703386, 0.033246208, -0.10101307, 0.036022235, -0.23780097, -0.052319, 0.032136664, 0.0066700396, -0.17365289, 0.05064347, 0.09655344, 0.11523705, -0.35993424, -0.3199782, 0.012477152, -0.097187236, -0.34126887, -0.17348678, -0.052094754, 0.09553448, 0.0039996295, -0.2303765, -0.10468237, -0.09222531, -0.08262162, -0.19190183, -0.03209454, 0.049989503, 0.040371966, 0.14843446, 0.09165644, -0.14357002, 0.019210469, 0.004908218, -0.024766449, 0.03978619, -0.011429342, 0.02563445, -0.018946672, -0.095248535, -0.112917304, 0.040960576, -0.06002883, 0.06173781, -0.020200605, -0.047428433, -0.004495997, -0.04069918, 0.06312165, 0.14306442, -0.26801708, -0.0396647, -0.001961006, 0.019902946, 0.041842785, -0.07282149, 0.0037114401, -0.054073613, 0.32182583, -0.100120604, 0.013687447, 0.0935899, -0.1845647, -0.09691497, -0.009850675, -0.020722816, -0.6266265, -0.041098885, -0.15517431, -0.03832374, -0.0036785256, -0.052087177, -0.028175656, -0.011704908, 0.057955094, -0.15838954, -0.56922686, 0.08692007, 0.07872944, -0.13767253, 0.39048445, -0.26098365, 0.030057766, 0.12092798, 0.069800146, -0.13621661, -0.22226825, 0.09217914, -0.04063288, -0.40826473, -0.04515808, -0.0058171223, -0.079847805, 0.052426454, -0.16941522, 0.061504975, -0.012057419, 0.12495855, -0.41750693, -0.038908113, -0.017696321, -0.012491662, 0.07360298, -0.11699616, 0.078613944, -0.15570228, -0.13921432, -0.13018084, -0.061998785, -0.19912098, -0.0037608205, -0.04745919, -0.01077318, -0.14408395, 0.21694827, -0.082634516, -0.09052348, 0.046248466, -0.001347116, -0.06851846, -0.09553001, 0.05680398, -0.062698804, 0.08136827, 0.08105534, -0.11122872, 0.07379992, 0.03528203, 0.043957546, -0.054067113, 0.054033477, 0.10147624, 0.05469597, -0.045164917, 0.07862679, 0.016156731, -0.2373814, 0.04456269, -0.039008502, 0.07346579, 0.6320063, -0.06485449, -0.021300552, 0.07870382, -0.19471921, 0.11453903, 0.06893472, -0.081591636, -0.15289114, 0.15643099, -0.08498126, 0.1368355, 0.04055518, -0.16165297, 0.17324238, 0.16258363, 0.072696514, 0.21714535, 0.02835883, -0.104071446, 0.021433985, -0.1624451, 0.38313246, 0.0053647417, -0.0064485483, -0.050133854, 0.016357122, 0.14753337, 0.02205559, -0.13530695, 0.059635434, 0.07368953, 0.019530863, 0.0023851616, 0.040307354, -0.100321844, 0.07164255, 0.050173234, 0.18229836, -0.06017041, 0.1417135, 0.043595526, -0.09100299, -0.06936666, -0.03044044, 0.056271844, -0.16162868, 0.08078582, -0.007364095, -0.21272692, -0.31170297, 0.0056761694, -0.044473145, -0.10029831, 0.05403749, 0.024318755, -0.36792105, 0.027203739, 0.055355415, 0.065992795, -0.3205241, 0.03862217, -0.1433093, -0.093444996, 0.9774794, -0.30211395, -0.108360186, 0.10949999, -0.55836743, -0.24321872, 0.02306446, -0.07904635, -0.056047756, 0.061036922, -0.09634676, 0.021660209, 0.14725196, -0.42070547, -0.119237736, -0.27361295, 0.027956074, 0.046573993, -0.13919763, -0.08116139, 0.04070934, -0.11999238, 0.13986012, 0.035032567, -0.07502361, 0.010076216, -0.06400996, -0.10343946, 0.26914325, -0.030489918, -0.14027368, 0.050553106, 0.022592569, 0.07541538, -0.0020735643, -0.117623754, 0.0712385, -0.15689202, -0.6365188, -0.09776068, 0.027584843, -0.0026871096, 0.0016231228, 0.09879693, -0.102427304, -0.023373025, 0.23033923, 0.07151708, 0.06156212, -0.019162979, 0.29637328, -0.09007693, -0.034068964, 0.013665654, 0.20122696, 0.087212436, -0.002404883, 0.0073395176, 0.016643126, -0.004965347, -0.08685148, 0.029892907, -0.053724382, -0.11667031, 0.15899856, 0.35324985, 0.07201688, -0.107840054, 0.26619336, 0.11297513, 0.11893646, 0.047282, 0.07851637, -0.020369908, 0.13610457, 0.21276939, 0.011825297, 0.07097968, -0.0147804925, -0.14382637, -0.058111425, -0.11172511, 0.07980881, 0.061273076, 0.015263392, -0.1173438, -0.097314835, 0.018231697, 0.098191805, 0.0411584, 0.0111083435, -0.11410905, 0.1943884, 0.37337682, 0.04526954, -0.0714247, -0.0051068673, 0.02195096, 0.04339268, 0.00491437, -0.012565547, 0.23718093, 0.074270315, -0.09190793, -0.019328179, -0.0068966765, 0.046082903, -0.035277788, -0.1844977, 0.047626995, -0.0353201, 0.025255486, -0.03475962, -0.037749343, 0.10209867, 0.12833282, -0.095931984, -0.12620147, -0.28651506, -0.012152441, 0.028526044, 0.03520439, -0.07382822, -0.0416669, 0.01818253, -0.0038036506, -0.07367633, -0.11077993, -0.19548652, 0.18883628, -0.009771566, -0.11439004, 0.40449393, -0.19025551, -0.10293402, -0.11775773, -0.010788447, -0.06673855, -0.056543406, 0.056338366, -0.005722483, 0.062777944, 0.021008665, 0.0871597, -0.0048677335, -0.11198458, -0.06557549, -0.06966283, 0.026704153, -0.14581563, 0.12121307, 0.039044034, -0.08112519, -0.042471524, -0.08777823, 0.039921377, 0.15111923, -0.0125980675, -0.09793241, -0.030578459, 0.022792233, 0.0848366, 0.041025586, -0.12881891, -0.14361693, -0.05554621, -0.09015761, 0.1004217, 0.017865231, 0.052063104, -0.010820966, 0.026995888, -0.13987939, -0.034458548, -0.081617735, -0.087350845, -0.036719177, 0.035191752, 0.01649653, 0.057173368, -9.569672e-06, -0.031618208, -0.38988408, -0.05458126, -0.046998456, 0.0006061571, -0.010151296, -0.011359999, -0.061427895, -0.020175476, -0.010322635, -0.07346291, 0.28023845, 0.15235117, -0.05123839, -0.05023726, 0.07688049, 0.04143004, 0.0060754344, -0.0899963, -0.021462219, 0.13070065, 0.21191734, 0.18839674, 0.09739661, 0.24907768, 0.07125846, 0.16850044, 0.026161002, 0.10022224, -0.043047827, -0.023428865, 0.027146835, -0.047560267, 0.44120288, 0.033364385, 0.030793345, -0.10327425, -0.084757835, -0.09826051, -0.00911807, 0.28489012, -0.08155323, -0.11825165, 0.020815698, 0.08505497, 0.0015662967, 0.02392854, -0.07054587, 0.1339144, -0.069270045, -0.11234227, -0.022328021, 0.022792483, -0.105526336, -0.00038698042, -0.054297537, 0.08065805, -0.117597766, -0.017300252, -0.04171971, -0.07779333, -0.005389099, 0.13072279, -0.055771086, -0.08086831, -0.398513, 0.016735164, 0.0970266, -0.10122359, -0.014248832, -0.060988713, -0.15077966, 0.037228618, -0.031030811, -0.13719994, -0.0026888307, -0.33209854, -0.030518478, -0.06343335, 0.2838158, 0.041468527, -0.07776907, -0.13054994, -0.15160865, -0.17726237, -0.07439997, 0.13166055, 0.057771567, 0.13427618, -0.088656396, -0.01727057, 0.09610376, 0.09921134, 0.017868701, -0.12679131, 0.016190758, -0.011072969, -0.38727608, 0.06602321, -0.110303916, -0.15382569, -0.1167167, 0.106238, 0.3356409, 0.18060528, -0.2633064, 0.018934567, 0.07687098, -0.06841063, 0.016232599, -0.11969188, -0.07137673, 0.05078529, 0.08607657, 0.082566135, -0.0787012, 0.00241697, -0.035069864, -0.07260436, 0.06811681, 0.043920778, 0.29943228, -0.011416177, 0.05101009, -0.021782229, 0.1429246, 0.11951128, -0.12944761, -0.10413747, 0.0703179, -0.005754274, -0.009250249, 0.034295812, 0.014779012, -0.013293605, -0.07141874, 0.037692722, 0.057287753, 0.064239606, 0.5666381, 0.30071214, 0.07257513, -0.021234121, 0.19787051, 0.14784618, 0.04012686, -0.07872982, 0.017191673, 0.21576227, -0.16338906, 0.08598638, -0.0124154575, -0.031708647, 0.07622323, 0.18556683, 0.08980431, 0.20829344, -0.07059814, -0.14015032, 0.00347946, -0.06458333, 0.057980567, 0.015033839, -0.06570818, -0.122437276, 0.048711322, 0.08148819, -0.01003435, -0.16659065, -0.026685419, -0.00686807, 0.023827277, -0.056518633, 0.018839821, -0.028224843, 0.03301251, 0.05148752, 0.6596945, 0.057690267, 0.032851495, 0.010061934, -0.019447315, -0.08340992, 0.08207277, 0.012737337, -0.17931496, -0.024822313, -0.02284019, -0.14019819, -0.2934536, -0.09080031, 0.061323162, -0.036900394, -0.14627558, 0.043639712, -0.23743266, 0.004241508, 0.019196568, 0.02918571, -0.24157436, 0.025971655, 0.008290006, -0.13389762, -0.65358907, -0.13104434, -0.09939971, -0.20108141, -0.33239412, -0.28590372, 0.06348044, -0.10106442, -0.0368775, -0.14563385, -0.18029173, -0.071987495, -0.08727491, -0.36272696, -0.0068187797, -0.07777733, -0.04140687, -0.078595944, -0.17996933, 0.06400626, 0.020388909, -0.1241039, 0.10195442, 0.008771992, -0.019579424, 0.11083127, -0.15450047, -0.060673434, -0.035489056, -0.34821457, -0.013351611, -0.00958615, -0.057732865, 0.00109956, 0.044622783, 0.008888503, -0.057689752, -0.22831093, -0.29700232, -0.024601556, 0.00901045, -0.004959889, 0.070103064, -0.11146133, 0.0732093, 0.033027306, -0.24432506, 0.03530145, 0.031565208, -0.15559833, -0.37438408, -0.12174017, -0.090321235, -0.079848126, 0.051361527, -0.053085513, -0.1364, -0.0127049, -0.049159523, -0.012448979, -0.24690327, 0.0052281646, -0.13092157, 0.039738774, -0.118473366, 0.14459457, 0.0081978375, -0.18237062, -0.1891008, -0.2485511, -0.03982631, 0.024557624, -0.00796223, -0.065141976, -0.062453486, 0.15318206, 0.05238588, -0.1945048, -0.11768073, 0.06204247, -0.010130891, 0.04066481, 0.12230349, -0.12535363, -0.028738517, 0.1925303, 0.06000139, -0.020050304, 0.1152477, -0.069400884, -0.06384666, 0.110810116, -0.048955295, 0.14134501, 0.10854954, -0.05435178, -0.061296802, -0.09906254, -0.03864769, 0.02107704, 0.020105788, -0.088481046, -0.20151587, 0.0028656744, 0.010781493, 0.07490666, 0.003914017, 0.11149986, -0.13472703, -0.025839286, -0.013759131, -0.08952619, -0.010182718, -0.035821673, 0.30065522, -0.03290649, -0.05070799, -0.19343105, -0.19504689, -0.042378165, -0.25351435, 0.10719881, 0.02674749, 0.004367518, 0.056141544, -0.029226575, -0.012062549, 0.070406064, -0.38778332, -0.27886355, -0.13375701, 0.017623758, 0.27708167, 0.11238621, 0.06319756, 0.10532042, 0.12641443, -0.046524595, 0.36191544, 0.046396654, -0.040441353, -0.06166657, -0.020690372, 0.071951, -0.06288587, 0.16924386, 0.009682221, 0.028319884, 0.022761652, 0.14667776, -0.21025015, 0.001531895, 0.00439896, -0.07025126, -0.0812354, -0.031217318, -0.23536299, 0.15719424, 0.082675636, -0.0019514193, -0.029118296, -0.056458056, -0.018340487, -0.030229535, 0.064285204, 0.039558597, 0.018382877, 0.196601, 0.11515728, -0.011123012, 0.07160157, 0.024647508, -0.046404373, -0.05423066, -0.34960967, -0.10271546, -0.07769452, 0.12449437, -0.011575802, -0.02638116, -0.044355106, -0.03428994, 0.00045556942, -0.06489537, -0.21150753, -0.00010096402, -0.047575682, -0.090563186, 0.10096947, -0.004075053, 0.17462683, -0.10940715, -0.7065728, -0.3177739, 0.10325447, -0.23606695, -0.2388469, -0.4072952, 0.03841115, 0.01606004, -0.044014994, -0.024488676, -0.0819645, -0.09102583, -0.034820836, -0.3575441, 0.21349417, -0.21101135, -0.008775165, -0.05567028, 0.02526372, -0.018746443, -0.015937753, -0.002153655, -0.065800205, -0.051850807, -0.08489006, -0.15661982, -0.07509465, -0.018176759, -0.33537683, 0.0035581863, -0.03298543, -0.019782187, 0.064941324, 0.28466517, -0.019791871, 0.060393002, -0.06814737, 0.16646081, 0.12125125, 0.05630687, 0.015052732, -0.036526475, 0.09530042, -0.16029926, -0.14030224, -0.025321037, 0.080669396, -0.10297577, 0.058581136, -0.07614559, -0.39735234, 0.06637332, -0.007635521, 0.037796207, -0.5429041, 0.032450214, -0.04681132, -0.08266228, -0.047006425, -0.0043581044, -0.13671622, -0.03818891, -0.09756533, 0.10316835, -1.0540236, 0.22486721, -0.08716163, -0.10413648, 0.3196686, -0.20398624, 0.0063276566, -0.01609778, -0.031014223, -0.040471584, 0.29728687, 0.14380376, -0.053482577, -0.26000735, 0.047563504, 0.20228441, -0.094856314, -0.025798133, 0.0053836913, 0.098683946, 0.019892018, -0.033207938, 0.21218182, -0.006168233, 0.006396712, -0.13162069, 0.041955046, -0.13932814, -0.28180614, -0.19999184, 0.03700159, -0.13879365, -0.010822709, -0.12718162, -0.012751285, -0.1055005, 0.0044475654, 0.12764376, 0.33467832, -0.1072548, -0.08148454, -0.0051339967, -0.076952495, 0.01513536, 0.043016337, -0.01773861, -0.215402, -0.00073387224, -0.12850279, 0.16090621, -0.09689385, -0.13805808, 0.016733747, -0.020681242, -0.6669668, 0.011398271, -0.16718031, -0.041621644, -0.032897443, -0.05308103, -0.20415902, -0.051348917, 0.17040068, -0.11079801, 0.065031506, -0.28944913, 0.15217091, -0.12069005, 0.076946415, 0.17206189, 0.026918478, -0.10255244, -0.055911552, -0.07211004, -0.11287076, 0.05007329, -0.08646448, -0.46587628, 0.115569025, -0.17470826, 0.058775734, -0.045296382, -0.04685193, -0.15796453, 0.008637349, -0.06258439, -0.24122518, 0.0056866556, -0.005110576, 0.068134636, 0.06826905, -0.056437586, -0.28502053, -0.2334071, -0.23521508, 0.033947468, -0.0678749, 0.023355665, -0.021867257, 0.18556377, -0.08154843, -0.0011905875, 0.13242096, -0.05617858, -0.12667699, -0.02615169, -0.15242381, 0.03249966, 0.0045920215, 0.012469889, -0.24637523, 0.009734015, -0.09674635, -0.015395412, -0.34056288, -0.03536847, -0.10309179, -0.19481581, -0.51503396, 0.009990669, -0.06137354, -0.01048519, 0.0085291015, -0.018790754, -0.19651163, 0.06425468, 0.052021943, 0.04234673, -0.5948026, -0.37701952, 0.12873738, -0.003994623, -0.004133965, -0.22412772, -0.07102039, -0.092704765, -0.03331139, -0.013590926, -0.029799087, -0.18125068, 0.010191847, -0.37649357, -0.3001669, -0.101852894, 0.09441354, -0.096787326, -0.19733846, 0.09329466, -0.02695966, 0.18677172, -0.14036722, -0.009613755, 0.072755925, 0.03668953, 0.036402825, 0.10976916, 0.019919652, -0.41696024, 0.15619223, 0.057469223, -0.009169921, -0.00015091026, -0.0006964102, 0.07195648, -0.015186889, -0.32097486, -0.45483762, 0.10750994, 0.09390649, -0.03185488, -0.06801917, -0.07128645, -0.068414055, 0.01718324, -0.084301054, 0.08213001, 0.027019344, -0.05083548, -0.2200636, -0.034489222, 0.102513604, -0.014412666, -0.17100438, 0.05593835, 0.027641423, 0.024984088, 0.03888416, -0.0023679857, -0.04030889, 0.03945223, 0.0479287, -0.14512162, -0.18291686, -0.004056283, 0.034232736, -0.10600606, -0.19308099, 0.0660451, 0.01817568, -0.044142704, -0.09255616, -0.0075606, 0.10877209, -0.008267744, 0.0065728957, -0.14689341, -0.2131529, -0.23617813, 0.07660909, -0.16396882, -0.063535705, -0.0029340447, -0.023575824, 0.10099436, -0.047244724, 0.026111213, -0.08532514, 0.10722984, 0.06770147, 0.06462782, 0.13413249, -0.30190527, 0.19037065, 0.09689904, -0.027793292, -0.021598136, 0.03841612, -0.089710474, -0.06593367, -0.10609809, -0.29087073, -0.17044055, 0.12446894, -0.036255565, -0.05263756, -0.13395424, 0.13045977, -0.020626293, 0.06742556, 0.0042506545, -0.07385692, -0.020714317, -0.24993092, 0.11239511, 0.16162221, 0.029129952, -0.60744965, -0.033313464, 0.29391494, -0.047592666, 0.036129013, -0.015285609, 0.019098744, -0.052583158, 0.04468048, -0.22653617, 0.06667964, 0.36059523, -0.15557519, -0.23169984, -0.08002908, -0.07118183, -0.11272962, 0.082825035, 0.1040692, -0.052966785, -0.095564455, 0.08272417, -0.047705617, 0.1924741, -0.06363566, -0.30307636, 0.064667165, -0.00063732115, 0.02702521, -0.17270303, -0.018679058, 0.13701509, -0.25243843, -0.016261872, -0.06743896, 0.027271973, 0.12312837, 0.020987386, -0.05590872, -0.38574338, -0.045625437, -5.571398e-05, -0.07105157, 0.0069661387, -0.009439949, 0.07108716, 0.067960754, -0.14092855, -0.1383254, -0.0832695, -0.090527534, -0.0059710094, 0.08529069, 0.1298136, -0.01547199, -0.0046725417, 0.20671013, -0.07701308, -0.051877163, -0.17555667, 0.177874, 0.039025337, 0.11636028, -0.08587022, -0.043930832, -0.023198716, -0.44841543, 0.050680947, -0.036310516, -0.087731816, -0.25775856, 0.026848923, 0.04037065, 0.09944415, -0.6984321, -0.10445546, -0.094037205, -0.1636327, -0.4530371, -0.2779472, 0.07542117, 0.045913074, -0.038757987, -0.08203502, -0.08561946, -0.096146494, -0.09478082, -0.3033548, -0.018031659, -0.09974631, -0.05985457, -0.026295532, 0.017529745, -0.111486346, -0.0076027326, -0.13081054, -0.017333243, -0.034110755, 0.11187451, -0.035891484, -0.0009767296, -0.032482274, -0.19372499, -0.1793786, 0.102738425, -0.055874463, -0.06406166, -0.03362075, -0.0005260742, 0.10214553, 0.051961746, -0.008520605, 0.05099513, 0.00887191, -0.07184485, 0.030407572, 0.0526983, -0.086455576, -0.042360764, 0.033246584, -0.16929097, 0.039525088, -0.11752635, 0.07205569, 0.082678474, 0.026138622, -0.096791625, -0.0021011238, -0.38225734, -0.03769464, -0.18294005, 0.051374234, 0.04193743, 0.03179152, -0.062091812, -0.020572381, -0.034703307, 0.15100943, 0.19123489, -0.22212939, -0.00509233, 0.110529095, -0.22880629, -0.08622041, -0.074376896, -0.012229424, -0.06877851, 0.081640765, 0.316948, -0.17437986, 0.027135676, -0.22936429, 0.03737055, -0.044415995, -0.10708963, 0.087375365, -0.1365673, 0.06866558, 0.016525174, -0.24027887, 0.24363041, -0.013729573, 0.021601811, -0.054370806, -0.057765212, -0.12583284, -0.1756155, 0.08909865, 0.02710879, 0.14602397, 0.058675196, -0.15209006, 0.020539282, -0.090654016, -0.0054731057, -0.09809299, -0.6275645, -0.054124013, -0.021021202, 0.030385192, -0.0823852, -0.13948165, 0.011398754, 0.06348243, -0.16809319, -0.028404055, 0.01676242, -0.039808333, -0.21913417, -0.18813294, -0.09835773, 0.0063386057, -0.82646334, -0.05013502, -0.06462703, -0.0006303798, 0.013846518, 0.07805691, -0.13526079, 0.013769764, -0.052973546, 0.06920024, 0.04841282, -0.02814349, -0.15369073, -0.11083598, -0.36099553, -0.33553946, -0.056427438, -0.076177046, -0.12651694, 0.15007761, 0.13938746, 0.1284409, 0.0020791825, 0.016234104, -0.0006606687, -0.039273053, 0.06711945, -0.14741188, 0.009317811, -0.17059612, 0.023215296, 0.029954847, 0.030950867, 0.011135577, -0.08561585, 0.04065449, -0.10107956, 0.059674464, 0.0626476, -0.04619733, 0.0417574, 0.057507638, 0.057516575, 0.09865532, 0.007745502, 0.0307754, 0.11218489, -0.21493311, -0.45573452, 0.011093837, -0.027506769, -0.029570362, 0.023478018, 0.08720892, -0.09540867, 0.040650733, -0.12387867, 0.051197413, -0.018884152, 0.047371864, -0.1962256, -0.18755847, 0.090160415, -0.040615853, -0.2679748, 0.0564336, -0.1904351, -0.06462101, 0.060788568, -0.0865167, -0.19029304, 0.059814814, -0.054829296, -0.030867144, 0.5387562, -0.20350899, -0.10261365, -0.14335237, -0.53055066, -0.2548373, -0.04223164, -0.033935048, -0.094365455, -0.066611834, -0.19453901, -0.032858245, -0.028220583, -0.5408274, -0.078082606, -0.16555268, 0.06337414, 0.19191304, 0.049525857, -0.029903233, 0.0250184, -0.21863636, 0.20080775, 0.028301535, -0.040895242, -0.17425516, -0.03770192, 0.15497635, 0.35112908, 0.19114926, 0.027185388, -0.099239126, -0.04863215, -0.019305497, -0.00027254026, -0.05861239, -0.046945013, -0.20703085, -0.21051842, -0.094006255, -0.023903064, -0.03182308, 0.13883993, -0.053826526, -0.02096704, -0.02252093, -0.11776944, 0.036236666, 0.043781273, 0.024724077, -0.35790482, -0.07826822, -0.12198184, 0.13134675, -0.49427497, 0.035562046, 0.050602105, -0.0026961523, 0.012376764, 0.010131136, -0.21678977, -0.0037835736, 0.07093652, -0.07234362, -0.7692745, -0.287809, -0.02147033, -0.2041789, -0.094146624, -0.12709054, 0.035509296, -0.035300557, 0.079073735, 0.11051198, 0.033081774, 0.16814655, 0.051531333, -0.1506751, 0.11683052, -0.18434474, 0.0004738837, 0.031608645, -0.076898426, -0.19905886, 0.010342975, 0.16756962, 0.20405222, 0.02341988, 0.08021776, 0.104976356, -0.109329715, 0.041176055, 0.008551157, -0.0980342, -0.17072068, -0.1637415, -0.038922522, 0.05316711, 0.0039268644, -0.069218785, 0.075596645, 0.11031283, -0.28315207, -0.17870072, -0.09199912, -0.026891017, 0.15288329, -0.09561246, -0.15165468, 0.056554988, 0.03893968, 0.020922756, 0.04155514, -0.10600089, -0.65548605, -0.21001899, -0.16972463, 0.0044592475, -0.23020625, 0.01599672, -0.12376067, -0.030892236, 0.016611898, 0.010615713, 0.04969536, -0.008856341, -0.059237067, 0.021775825, 0.4347029, -0.25329268, -0.16314377, -0.20826858, 0.018202558, -0.13328137, -0.011157291, 0.07940482, -0.0860225, -0.24658711, -0.2958255, -0.06657211, 0.028277235, -0.1406318, -0.13806826, 0.00324896, 0.05764067, -0.25310743, -0.09334188, -0.15459758, 0.01187375, -0.10417433, -0.044998307, 0.022377376, 0.14169025, -0.074802026, -0.060913198, -0.15311672, 0.048965648, -0.29152158, -0.110969335, 0.08024696, -0.08669201, 0.03903997, 0.015986104, -0.03412204, 0.07462507, -0.07556605, -0.57771206, 0.004669623, 0.027325565, 0.025701554, -0.15456231, -0.17821296, -0.20032918, 0.03261242, 0.07517533, -0.1088642, 0.116347656, -0.08036182, -0.103230104, 0.030434608, -0.19485596, -0.017178088, -0.43204707, -0.025297394, -0.0016675438, -0.12427189, -0.013761575, 0.05784844, 0.06314247, -0.0160944, -0.09103852, -0.10668184, -0.36768273, -0.036603082, -0.10219659, 0.020711174, -0.27068087, 0.21214804, -0.081607796, -0.108942784, -0.074871205, -0.17748898, -0.17183292, -0.057496674, 0.060989015, 0.1446916, -0.2111731, -0.048103053, -0.10721099, -0.047636475, -0.1417741, -0.11858816, -0.01723888, -0.10625686, -0.38454986, 0.01811074, -0.16934983, -0.030729735, -0.1673096, -0.11176384, -0.109561995, -0.0015818621, -0.12159662, 0.117003895, -0.05979679, -0.009239211, -0.031982347, -0.12052515, -0.010637315, -0.20956148, -0.07961395, 0.08603095, -0.010525515, -0.02057589, 0.059441097, 0.06323852, -0.13832931, 0.024068449, -0.3089184, 0.03292442, -0.038338773, -0.21108396, -0.43854764, 0.14416377, 0.025648762, 0.059228487, 0.3039241, -0.00030837924, -0.56618863, 0.07084, -0.014099767, 0.04569759, -0.33951947, 0.07783623, -0.0003319187, -0.15028648, 0.17491631, -0.047294725, 0.04076327, -0.21535447, -0.78675234, -0.19879062, 0.0332334, -0.0037939965, 0.08929745, 0.040193588, 0.0032578055, 0.016311277, -0.068683326, -0.0005048032, -0.18782969, -0.59118885, 0.12989445, -0.027441347, -0.20039785, 0.067008115, 0.020608688, 0.08020282, -0.0070015104, 0.028226724, -0.10976003, 0.07541412, -0.025484156, 0.16611044, 0.18403925, -0.2977053, 0.08386875, 0.053141996, -0.022527073, -0.009611509, 0.0617658, 0.009013774, 0.087846, 0.077187, 0.010061985, -0.07245477, 0.07108154, -0.0017633205, -0.10729763, 0.05838177, -0.044472292, 0.02082359, -0.113931485, -0.025861952, 0.07860245, -0.11324451, 0.36684194, 0.14060618, 0.061568152, -0.07476314, -0.22537053, -0.0003748258, 0.034425154, 0.031531636, -0.0021114657, -0.01842611, 0.2725421, 0.028845683, 0.15773265, -0.15538038, 0.32600465, 0.09221506, 0.08071237, 0.08171112, -0.18445702, 0.10106818, -0.049092855, 0.04911755, -0.019598577, -0.17016596, -0.1906524, -0.09762656, -0.06515185, -0.017133553, 0.076449476, 0.18119982, 0.033378366, 0.20234594, 0.110148, -0.043723427, -0.012982365, -0.1193629, 0.32388988, -0.010932171, 0.10284581, 0.090683974, -0.024419844, -0.05880227, 0.025454853, -0.014218909, -0.10122503, 0.047344, 0.1261089, 0.051018972, -0.019530386, 0.054608557, 0.017694762, 0.053425528, -0.008434009, -0.039114367, -0.047991842, -0.022888293, 0.08638138, 0.16062605, -0.06487972, -0.015036833, 0.0057378076, 0.015615353, -0.14351903, 0.044814467, -0.27393243, -0.101790585, 0.013637017, -0.114146635, 0.5335954, 0.10607114, -0.09661537, 0.010525466, 0.07092165, -0.0075752367, -0.0065036453, 0.06827398, -0.0768183, -0.1887259, 1.0567867, -0.29817522, -0.006433853, -0.15108697, -0.06734891, -0.08815664, 0.07687631, 0.082779996, -0.030280637, 0.09748724, -0.2406643, 0.018588394, 0.0051777596, -0.17483582, -0.12619624, -0.17308828, 0.11757046, -0.11368826, -0.062096257, -0.0689943, -0.03356639, -0.011468223, -0.11564205, 0.020466182, -0.14114772, 0.058352806, 0.008053904, 0.21880168, 0.21161158, -0.28053483, 0.27415508, -0.04637641, 0.023597816, -0.04127373, 0.012452228, 0.0151721295, 0.11368308, -0.05501999, -0.33707064, -0.02819213, -0.030139836, -0.0154157635, -0.12655333, 0.061399605, -0.05900762, 0.03183688, -0.030240566, -0.034215067, -0.0925977, 0.11597764, -0.1514524, 0.047586877, 0.117545865, -0.041602563, -0.38078701, -0.09374904, -0.27904534, -0.0039980463, -0.01798137, 0.008636653, -0.14485139, 0.037740603, -0.08882085, -0.098021775, -0.9266124, 0.26193714, -0.0211733, -0.0893524, -0.21981353, 0.2170387, 0.014987871, 0.11127021, 0.008713896, 0.013347764, 0.11397067, 0.019834716, -0.07596126, -0.47678852, 0.12435777, 0.25391284, 0.036308393, -0.048501894, 0.08512619, -0.058881257, -0.032321315, -0.06742909, 0.15243518, 0.0036784965, 0.052776594, 0.05995278, -0.06957047, 0.069243364, -0.19760814, 0.0062864814, -0.14139959, 0.059577104, -0.033198558, -0.17018397, 0.008079486, 0.12812315, -0.07978352, -0.26189935, -0.3681872, -0.06795337, 0.037665855, 0.05924586, -0.11565289, -0.13109617, -0.065030895, 0.036076605, -0.11133514, 0.02125261, -0.031314593, -0.20902501, -0.203284, 0.05846398, -0.1762684, 0.07399468, -0.36655086, -0.08634432, 0.07868228, -0.043315947, -0.03193659, -0.06075427, 0.039587002, -0.011741972, -0.09415692, 0.042751778, -0.29437968, -0.07232499, -0.07989789, -0.10139255, 0.380459, -0.051203616, -0.047222104, 0.00029831502, -0.013135723, -0.09911543, -0.12500302, 0.17415191, 0.054650668, -0.18253823, -0.09292673, -0.06631789, -0.11019273, 0.013394663, -0.11227388, -0.058130275, -0.000994726, 0.010091503, -0.025422521, 0.009656957, -0.07728161, -0.045146126, 0.052073725, 0.03954208, -0.19221187, 0.090176105, -0.14375877, -0.17400181, 0.0019638608, -0.0538823, 0.03185989, -0.11256838, -0.12275703, 0.10197249, 0.19004902, -0.14718068, -0.0913108, 0.016481128, -0.107871756, 0.1402042, 0.1400475, -0.04290679, -0.21890251, -0.028586578, 0.029023, 0.020359686, -0.22361068, 